{"learner":{"attributes":{"scikit_learn":"{\"_estimator_type\": \"regressor\"}"},"feature_names":[],"feature_types":[],"gradient_booster":{"model":{"cats":{"enc":[],"feature_segments":[],"sorted_idx":[]},"gbtree_model_param":{"num_parallel_tree":"1","num_trees":"600"},"iteration_indptr":[0,1,2,3,4,5,6,7,8,9,10,11,12,13,14,15,16,17,18,19,20,21,22,23,24,25,26,27,28,29,30,31,32,33,34,35,36,37,38,39,40,41,42,43,44,45,46,47,48,49,50,51,52,53,54,55,56,57,58,59,60,61,62,63,64,65,66,67,68,69,70,71,72,73,74,75,76,77,78,79,80,81,82,83,84,85,86,87,88,89,90,91,92,93,94,95,96,97,98,99,100,101,102,103,104,105,106,107,108,109,110,111,112,113,114,115,116,117,118,119,120,121,122,123,124,125,126,127,128,129,130,131,132,133,134,135,136,137,138,139,140,141,142,143,144,145,146,147,148,149,150,151,152,153,154,155,156,157,158,159,160,161,162,163,164,165,166,167,168,169,170,171,172,173,174,175,176,177,178,179,180,181,182,183,184,185,186,187,188,189,190,191,192,193,194,195,196,197,198,199,200,201,202,203,204,205,206,207,208,209,210,211,212,213,214,215,216,217,218,219,220,221,222,223,224,225,226,227,228,229,230,231,232,233,234,235,236,237,238,239,240,241,242,243,244,245,246,247,248,249,250,251,252,253,254,255,256,257,258,259,260,261,262,263,264,265,266,267,268,269,270,271,272,273,274,275,276,277,278,279,280,281,282,283,284,285,286,287,288,289,290,291,292,293,294,295,296,297,298,299,300,301,302,303,304,305,306,307,308,309,310,311,312,313,314,315,316,317,318,319,320,321,322,323,324,325,326,327,328,329,330,331,332,333,334,335,336,337,338,339,340,341,342,343,344,345,346,347,348,349,350,351,352,353,354,355,356,357,358,359,360,361,362,363,364,365,366,367,368,369,370,371,372,373,374,375,376,377,378,379,380,381,382,383,384,385,386,387,388,389,390,391,392,393,394,395,396,397,398,399,400,401,402,403,404,405,406,407,408,409,410,411,412,413,414,415,416,417,418,419,420,421,422,423,424,425,426,427,428,429,430,431,432,433,434,435,436,437,438,439,440,441,442,443,444,445,446,447,448,449,450,451,452,453,454,455,456,457,458,459,460,461,462,463,464,465,466,467,468,469,470,471,472,473,474,475,476,477,478,479,480,481,482,483,484,485,486,487,488,489,490,491,492,493,494,495,496,497,498,499,500,501,502,503,504,505,506,507,508,509,510,511,512,513,514,515,516,517,518,519,520,521,522,523,524,525,526,527,528,529,530,531,532,533,534,535,536,537,538,539,540,541,542,543,544,545,546,547,548,549,550,551,552,553,554,555,556,557,558,559,560,561,562,563,564,565,566,567,568,569,570,571,572,573,574,575,576,577,578,579,580,581,582,583,584,585,586,587,588,589,590,591,592,593,594,595,596,597,598,599,600],"tree_info":[0,0,0,0,0,0,0,0,0,0,0,0,0,0,0,0,0,0,0,0,0,0,0,0,0,0,0,0,0,0,0,0,0,0,0,0,0,0,0,0,0,0,0,0,0,0,0,0,0,0,0,0,0,0,0,0,0,0,0,0,0,0,0,0,0,0,0,0,0,0,0,0,0,0,0,0,0,0,0,0,0,0,0,0,0,0,0,0,0,0,0,0,0,0,0,0,0,0,0,0,0,0,0,0,0,0,0,0,0,0,0,0,0,0,0,0,0,0,0,0,0,0,0,0,0,0,0,0,0,0,0,0,0,0,0,0,0,0,0,0,0,0,0,0,0,0,0,0,0,0,0,0,0,0,0,0,0,0,0,0,0,0,0,0,0,0,0,0,0,0,0,0,0,0,0,0,0,0,0,0,0,0,0,0,0,0,0,0,0,0,0,0,0,0,0,0,0,0,0,0,0,0,0,0,0,0,0,0,0,0,0,0,0,0,0,0,0,0,0,0,0,0,0,0,0,0,0,0,0,0,0,0,0,0,0,0,0,0,0,0,0,0,0,0,0,0,0,0,0,0,0,0,0,0,0,0,0,0,0,0,0,0,0,0,0,0,0,0,0,0,0,0,0,0,0,0,0,0,0,0,0,0,0,0,0,0,0,0,0,0,0,0,0,0,0,0,0,0,0,0,0,0,0,0,0,0,0,0,0,0,0,0,0,0,0,0,0,0,0,0,0,0,0,0,0,0,0,0,0,0,0,0,0,0,0,0,0,0,0,0,0,0,0,0,0,0,0,0,0,0,0,0,0,0,0,0,0,0,0,0,0,0,0,0,0,0,0,0,0,0,0,0,0,0,0,0,0,0,0,0,0,0,0,0,0,0,0,0,0,0,0,0,0,0,0,0,0,0,0,0,0,0,0,0,0,0,0,0,0,0,0,0,0,0,0,0,0,0,0,0,0,0,0,0,0,0,0,0,0,0,0,0,0,0,0,0,0,0,0,0,0,0,0,0,0,0,0,0,0,0,0,0,0,0,0,0,0,0,0,0,0,0,0,0,0,0,0,0,0,0,0,0,0,0,0,0,0,0,0,0,0,0,0,0,0,0,0,0,0,0,0,0,0,0,0,0,0,0,0,0,0,0,0,0,0,0,0,0,0,0,0,0,0,0,0,0,0,0,0,0,0,0,0,0,0,0,0,0,0,0,0,0,0,0,0,0,0,0,0,0,0,0,0,0,0,0,0,0,0,0,0,0,0,0,0,0,0,0,0,0,0,0,0,0,0,0,0,0,0,0,0,0,0,0,0,0,0,0,0,0,0,0,0,0,0,0,0,0,0,0,0,0,0,0,0,0,0,0,0,0],"trees":[{"base_weights":[-1.2679926E0,-8.6749435E1,2.6234607E2,-1.0443824E2,7.632665E0,2.9546658E2,-2.7611227E0,2.4101489E0,-1.0934911E2,5.4265957E0,-8.166184E0,3.2997165E2,-6.454502E-1,-1.1634358E2,-8.573482E0,-4.2270615E1,1.8708311E1,1.8337306E2,3.6591275E2,-1.2044722E2,-2.7079763E1,-1.085198E0,2.5303754E-1,-2.3518782E0,-7.7211773E-1,4.5104237E0,1.7744603E0,1.7374291E0,1.3118904E1,1.7220736E1,9.231221E0,-5.562034E0,-2.5456343E0,-3.981158E-1,-1.711006E0,8.5263634E-1,-1.1052406E0],"categories":[],"categories_nodes":[],"categories_segments":[],"categories_sizes":[],"default_left":[0,0,0,0,0,0,0,0,0,0,0,0,0,0,0,0,0,0,0,0,0,0,0,0,0,0,0,0,0,0,0,0,0,0,0,0,0],"id":0,"left_children":[1,3,5,7,9,11,-1,-1,13,-1,15,17,-1,19,21,23,25,27,29,31,33,-1,-1,-1,-1,35,-1,-1,-1,-1,-1,-1,-1,-1,-1,-1,-1],"loss_changes":[1.1173563E7,6.262255E5,1.3308105E6,2.5415925E5,1.1064695E5,1.187842E6,0E0,0E0,2.1457025E5,0E0,5.0998617E4,4.28645E5,0E0,1.0028925E5,5.03613E3,5.1618516E3,9.204136E3,3.450472E5,1.5215E5,7.04475E4,2.4919785E3,0E0,0E0,0E0,0E0,9.47373E3,0E0,0E0,0E0,0E0,0E0,0E0,0E0,0E0,0E0,0E0,0E0],"parents":[2147483647,0,0,1,1,2,2,3,3,4,4,5,5,8,8,10,10,11,11,13,13,14,14,15,15,16,16,17,17,18,18,19,19,20,20,25,25],"right_children":[2,4,6,8,10,12,-1,-1,14,-1,16,18,-1,20,22,24,26,28,30,32,34,-1,-1,-1,-1,36,-1,-1,-1,-1,-1,-1,-1,-1,-1,-1,-1],"split_conditions":[1E0,3E0,1E0,1E0,1E0,1E0,-2.7611227E0,2.4101489E0,1E0,5.4265957E0,6E0,1E0,-6.454502E-1,1E0,1E0,3E0,1.2E1,1E0,1E0,1E0,1E0,-1.085198E0,2.5303754E-1,-2.3518782E0,-7.7211773E-1,1E0,1.7744603E0,1.7374291E0,1.3118904E1,1.7220736E1,9.231221E0,-5.562034E0,-2.5456343E0,-3.981158E-1,-1.711006E0,8.5263634E-1,-1.1052406E0],"split_indices":[14,0,13,37,7,58,0,0,51,0,0,9,0,45,21,3,0,17,49,15,7,0,0,0,0,12,0,0,0,0,0,0,0,0,0,0,0],"split_type":[0,0,0,0,0,0,0,0,0,0,0,0,0,0,0,0,0,0,0,0,0,0,0,0,0,0,0,0,0,0,0,0,0,0,0,0,0],"sum_hessian":[4.93E2,3.73E2,1.2E2,3.14E2,5.9E1,1.09E2,1.1E1,9E0,3.05E2,6E0,5.3E1,9.8E1,1.1E1,2.85E2,2E1,2.3E1,3E1,2.1E1,7.7E1,2.72E2,1.3E1,9E0,1.1E1,1.5E1,8E0,1.9E1,1.1E1,1E1,1.1E1,6.6E1,1.1E1,2.52E2,2E1,6E0,7E0,1.3E1,6E0],"tree_param":{"num_deleted":"0","num_feature":"82","num_nodes":"37","size_leaf_vector":"1"}},{"base_weights":[1.6363288E0,-8.3171326E1,2.7177945E2,8.5978365E0,-8.909056E1,-6.463067E1,3.209837E2,-1.190353E2,-5.1236473E1,-8.465259E-1,-4.656489E0,3.5203812E2,-3.1706297E-1,-1.26886894E2,-9.588769E0,-5.9021893E1,1.9717655E0,1.6334173E1,7.8459907E0,-1.3354126E2,-6.1228844E1,-1.3792577E0,3.8850838E-1,-5.0431396E1,-5.8852377E0,-6.0806503E0,-3.8928852E0,-4.0210123E0,3.232144E-1,-1.9636632E0,-6.3080163E0],"categories":[],"categories_nodes":[],"categories_segments":[],"categories_sizes":[],"default_left":[0,0,0,0,0,0,0,0,0,0,0,0,0,0,0,0,0,0,0,0,0,0,0,0,0,0,0,0,0,0,0],"id":1,"left_children":[1,3,5,-1,7,9,11,13,15,-1,-1,17,-1,19,21,23,-1,-1,-1,25,27,-1,-1,29,-1,-1,-1,-1,-1,-1,-1],"loss_changes":[1.1450935E7,6.4722275E5,2.006142E6,0E0,4.1462875E5,2.7194633E4,1.06753E6,1.7651425E5,1.2830731E5,0E0,0E0,1.65727E5,0E0,7.2907E4,6.442472E3,8.8475125E4,0E0,0E0,0E0,8.97225E3,4.1802633E4,0E0,0E0,7.208341E4,0E0,0E0,0E0,0E0,0E0,0E0,0E0],"parents":[2147483647,0,0,1,1,2,2,4,4,5,5,6,6,7,7,8,8,11,11,13,13,14,14,15,15,19,19,20,20,23,23],"right_children":[2,4,6,-1,8,10,12,14,16,-1,-1,18,-1,20,22,24,-1,-1,-1,26,28,-1,-1,30,-1,-1,-1,-1,-1,-1,-1],"split_conditions":[1E0,2E0,4E0,8.5978365E0,1E0,1E0,1E0,1E0,7E0,-8.465259E-1,-4.656489E0,1E0,-3.1706297E-1,1E0,1E0,1E0,1.9717655E0,1.6334173E1,7.8459907E0,1E0,1E0,-1.3792577E0,3.8850838E-1,6E0,-5.8852377E0,-6.0806503E0,-3.8928852E0,-4.0210123E0,3.232144E-1,-1.9636632E0,-6.3080163E0],"split_indices":[14,3,1,0,0,6,13,41,1,0,0,49,0,10,9,48,0,0,0,25,6,0,0,1,0,0,0,0,0,0,0],"split_type":[0,0,0,0,0,0,0,0,0,0,0,0,0,0,0,0,0,0,0,0,0,0,0,0,0,0,0,0,0,0,0],"sum_hessian":[4.97E2,3.79E2,1.18E2,7E0,3.72E2,1.5E1,1.03E2,2.06E2,1.66E2,8E0,7E0,9.4E1,9E0,1.92E2,1.4E1,1.54E2,1.2E1,8.5E1,9E0,1.73E2,1.9E1,6E0,8E0,1.4E2,1.4E1,1.59E2,1.4E1,1.3E1,6E0,1.33E2,7E0],"tree_param":{"num_deleted":"0","num_feature":"82","num_nodes":"31","size_leaf_vector":"1"}},{"base_weights":[-3.9386778E0,-7.8927666E1,2.395506E2,8.799509E0,-8.753569E1,1.0217208E2,3.458596E2,-1.1283301E2,-5.806785E1,-4.3007383E0,2.0971613E2,1.6663002E1,9.85824E0,-1.2337227E2,-2.7112965E1,-2.653834E1,-8.42753E1,2.4549489E2,1.0184615E0,-6.3612666E0,-9.674461E1,-1.0751622E1,-2.780694E0,-4.9167713E1,1.385489E1,-6.5541306E1,-5.652528E0,5.9897237E0,1.2909121E1,-4.7318983E0,-2.5568237E0,-9.9923915E-1,4.8597425E-1,-2.8434184E0,-5.573226E-1,-9.0779506E-2,1.8650725E0,-3.4379916E0,-1.6308297E0],"categories":[],"categories_nodes":[],"categories_segments":[],"categories_sizes":[],"default_left":[0,0,0,0,0,0,0,0,0,0,0,0,0,0,0,0,0,0,0,0,0,0,0,0,0,0,0,0,0,0,0,0,0,0,0,0,0,0,0],"id":2,"left_children":[1,3,5,-1,7,9,11,13,15,-1,17,-1,-1,19,21,23,25,27,-1,-1,29,31,-1,33,35,37,-1,-1,-1,-1,-1,-1,-1,-1,-1,-1,-1,-1,-1],"loss_changes":[9.49263E6,9.7173E5,1.73774E6,0E0,2.7876325E5,1.2142906E6,1.28006E5,1.8173775E5,1.4673431E5,0E0,2.3543125E5,0E0,0E0,7.666975E4,1.3203109E4,7.813125E4,6.722681E4,9.5725625E4,0E0,0E0,2.2664188E4,5.0314233E3,0E0,2.834989E4,1.4155694E4,2.0280531E4,0E0,0E0,0E0,0E0,0E0,0E0,0E0,0E0,0E0,0E0,0E0,0E0,0E0],"parents":[2147483647,0,0,1,1,2,2,4,4,5,5,6,6,7,7,8,8,10,10,13,13,14,14,15,15,16,16,17,17,20,20,21,21,23,23,24,24,25,25],"right_children":[2,4,6,-1,8,10,12,14,16,-1,18,-1,-1,20,22,24,26,28,-1,-1,30,32,-1,34,36,38,-1,-1,-1,-1,-1,-1,-1,-1,-1,-1,-1,-1,-1],"split_conditions":[1E0,2E0,1E0,8.799509E0,1E0,1E0,1E0,1E0,1E0,-4.3007383E0,1E0,1.6663002E1,9.85824E0,1E0,5E0,1E0,1E0,1E0,1.0184615E0,-6.3612666E0,1E0,3E0,-2.780694E0,1E0,1E0,1E0,-5.652528E0,5.9897237E0,1.2909121E1,-4.7318983E0,-2.5568237E0,-9.9923915E-1,4.8597425E-1,-2.8434184E0,-5.573226E-1,-9.0779506E-2,1.8650725E0,-3.4379916E0,-1.6308297E0],"split_indices":[14,3,17,0,0,10,53,15,8,0,65,0,0,9,1,21,16,15,0,0,10,3,0,5,18,45,0,0,0,0,0,0,0,0,0,0,0,0,0],"split_type":[0,0,0,0,0,0,0,0,0,0,0,0,0,0,0,0,0,0,0,0,0,0,0,0,0,0,0,0,0,0,0,0,0,0,0,0,0,0,0],"sum_hessian":[5.17E2,3.96E2,1.21E2,1.1E1,3.85E2,5.4E1,6.7E1,2.05E2,1.8E2,1.9E1,3.5E1,5.2E1,1.5E1,1.82E2,2.3E1,8.3E1,9.7E1,2.9E1,6E0,1.01E2,8.1E1,1.7E1,6E0,5.3E1,3E1,7E1,2.7E1,1E1,1.9E1,6.3E1,1.8E1,1.1E1,6E0,3.7E1,1.6E1,2E1,1E1,4.8E1,2.2E1],"tree_param":{"num_deleted":"0","num_feature":"82","num_nodes":"39","size_leaf_vector":"1"}},{"base_weights":[-1.0332301E1,-8.0283325E1,2.37709E2,1.1836089E1,-8.7445366E1,1.1776495E2,3.4969147E2,-1.1006025E2,-5.3554813E1,-1.1705585E1,1.3997476E1,1.682088E1,1.0088583E1,-1.1578154E2,2.214137E-1,-6.6138885E1,2.8962555E0,-7.4476524E1,9.9081696E1,-1.2121777E2,-1.1306459E0,-5.4760056E1,-5.3533654E0,-3.4710412E0,2.7328838E1,-4.568806E0,2.7559817E-1,1.6399999E0,6.3272657E0,-6.083819E0,-4.4509974E0,-1.7919738E0,-3.7791266E0,2.8705686E-1,1.6422229E0],"categories":[],"categories_nodes":[],"categories_segments":[],"categories_sizes":[],"default_left":[0,0,0,0,0,0,0,0,0,0,0,0,0,0,0,0,0,0,0,0,0,0,0,0,0,0,0,0,0,0,0,0,0,0,0],"id":3,"left_children":[1,3,5,-1,7,9,11,13,15,17,-1,-1,-1,19,-1,21,23,25,27,29,-1,31,-1,-1,33,-1,-1,-1,-1,-1,-1,-1,-1,-1,-1],"loss_changes":[8.865858E6,1.021833E6,1.451545E6,0E0,2.91633E5,1.4449282E6,8.03495E4,1.544505E5,1.1352059E5,2.5677547E5,0E0,0E0,0E0,1.04868E5,0E0,7.119794E4,6.320684E4,5.4362242E4,2.8639438E4,4.9627E4,0E0,4.3404688E4,0E0,0E0,4.5599766E3,0E0,0E0,0E0,0E0,0E0,0E0,0E0,0E0,0E0,0E0],"parents":[2147483647,0,0,1,1,2,2,4,4,5,5,6,6,7,7,8,8,9,9,13,13,15,15,16,16,17,17,18,18,19,19,21,21,24,24],"right_children":[2,4,6,-1,8,10,12,14,16,18,-1,-1,-1,20,-1,22,24,26,28,30,-1,32,-1,-1,34,-1,-1,-1,-1,-1,-1,-1,-1,-1,-1],"split_conditions":[1E0,2E0,1E0,1.1836089E1,1E0,1E0,1E0,1E0,1E0,1E0,1.3997476E1,1.682088E1,1.0088583E1,1E0,2.214137E-1,1E0,4E0,1E0,3E0,1E0,-1.1306459E0,1E0,-5.3533654E0,-3.4710412E0,3E0,-4.568806E0,2.7559817E-1,1.6399999E0,6.3272657E0,-6.083819E0,-4.4509974E0,-1.7919738E0,-3.7791266E0,2.8705686E-1,1.6422229E0],"split_indices":[14,3,17,0,0,35,53,33,21,15,0,0,0,41,0,16,1,0,0,9,0,36,0,0,0,0,0,0,0,0,0,0,0,0,0],"split_type":[0,0,0,0,0,0,0,0,0,0,0,0,0,0,0,0,0,0,0,0,0,0,0,0,0,0,0,0,0,0,0,0,0,0,0],"sum_hessian":[5.08E2,3.97E2,1.11E2,7E0,3.9E2,5.5E1,5.6E1,2.32E2,1.58E2,3.4E1,2.1E1,4.3E1,1.3E1,2.21E2,1.1E1,1.29E2,2.9E1,2.2E1,1.2E1,2.08E2,1.3E1,1.09E2,2E1,6E0,2.3E1,1.6E1,6E0,6E0,6E0,1.15E2,9.3E1,7.6E1,3.3E1,8E0,1.5E1],"tree_param":{"num_deleted":"0","num_feature":"82","num_nodes":"35","size_leaf_vector":"1"}},{"base_weights":[-5.1809325E0,-7.178756E1,2.2249684E2,1.0599623E1,-7.990905E1,-4.0043896E1,2.5637585E2,-1.0618913E2,-4.622206E1,1.2479403E0,-4.1486974E0,2.8925806E2,-6.654899E-1,-1.1112698E2,2.711909E-1,-1.6562918E1,-7.650978E1,3.1938486E2,2.2341405E2,-1.1575389E2,-6.093683E1,-3.112457E1,4.117573E1,-2.9149582E1,-9.154024E1,1.509595E1,9.912666E0,3.9617524E0,1.1902439E1,-5.9020386E0,-4.1242657E0,-3.3057969E0,-1.0310596E0,-9.339801E-1,-4.2032113E0,1.1301312E0,2.3295255E0,-1.5445097E-1,-2.045094E0,-4.3831663E0,-1.2817354E0],"categories":[],"categories_nodes":[],"categories_segments":[],"categories_sizes":[],"default_left":[0,0,0,0,0,0,0,0,0,0,0,0,0,0,0,0,0,0,0,0,0,0,0,0,0,0,0,0,0,0,0,0,0,0,0,0,0,0,0,0,0],"id":4,"left_children":[1,3,5,-1,7,9,11,13,15,-1,-1,17,-1,19,-1,21,23,25,27,29,31,33,35,37,39,-1,-1,-1,-1,-1,-1,-1,-1,-1,-1,-1,-1,-1,-1,-1,-1],"loss_changes":[7.7327455E6,1.0207341E6,1.0411685E6,0E0,3.3424625E5,5.6041406E4,9.199665E5,1.20405E5,1.5218844E5,0E0,0E0,8.0123E4,0E0,3.792875E4,0E0,7.6157484E4,5.6307E4,8.2255E3,1.6506838E5,5.578325E4,7.898742E3,4.300047E4,1.3670898E3,9.473654E3,2.40255E4,0E0,0E0,0E0,0E0,0E0,0E0,0E0,0E0,0E0,0E0,0E0,0E0,0E0,0E0,0E0,0E0],"parents":[2147483647,0,0,1,1,2,2,4,4,5,5,6,6,7,7,8,8,11,11,13,13,15,15,16,16,17,17,18,18,19,19,20,20,21,21,22,22,23,23,24,24],"right_children":[2,4,6,-1,8,10,12,14,16,-1,-1,18,-1,20,-1,22,24,26,28,30,32,34,36,38,40,-1,-1,-1,-1,-1,-1,-1,-1,-1,-1,-1,-1,-1,-1,-1,-1],"split_conditions":[1E0,2E0,4E0,1.0599623E1,1E0,1E0,1E0,1E0,1E0,1.2479403E0,-4.1486974E0,3E0,-6.654899E-1,1E0,2.711909E-1,1E0,1E0,1E0,6E0,1E0,4E0,1E0,1E0,3E0,1E0,1.509595E1,9.912666E0,3.9617524E0,1.1902439E1,-5.9020386E0,-4.1242657E0,-3.3057969E0,-1.0310596E0,-9.339801E-1,-4.2032113E0,1.1301312E0,2.3295255E0,-1.5445097E-1,-2.045094E0,-4.3831663E0,-1.2817354E0],"split_indices":[14,3,1,0,0,6,13,33,8,0,0,3,0,25,0,12,11,43,1,9,1,16,5,1,19,0,0,0,0,0,0,0,0,0,0,0,0,0,0,0,0],"split_type":[0,0,0,0,0,0,0,0,0,0,0,0,0,0,0,0,0,0,0,0,0,0,0,0,0,0,0,0,0,0,0,0,0,0,0,0,0,0,0,0,0],"sum_hessian":[5.07E2,3.93E2,1.14E2,9E0,3.84E2,1.3E1,1.01E2,2.14E2,1.7E2,6E0,7E0,9E1,1.1E1,2.05E2,9E0,8.7E1,8.3E1,5.8E1,3.2E1,1.86E2,1.9E1,7E1,1.7E1,2.1E1,6.2E1,4.5E1,1.3E1,9E0,2.3E1,1.03E2,8.3E1,1.3E1,6E0,6.2E1,8E0,9E0,8E0,9E0,1.2E1,5.5E1,7E0],"tree_param":{"num_deleted":"0","num_feature":"82","num_nodes":"41","size_leaf_vector":"1"}},{"base_weights":[-2.4141967E-1,-6.899798E1,2.1354684E2,8.505133E0,-7.6152E1,-2.73169E0,2.4763864E2,-8.262225E1,1.5005224E1,2.7148032E2,-5.022555E-1,-8.638636E1,4.910943E0,1.3030535E0,-6.0954297E-1,2.8683496E2,1.2573652E0,-9.1137276E1,-2.485392E1,8.091183E-1,-4.0922898E-1,3.0927188E2,1.7989551E2,-4.305219E0,-1.5746099E0,-4.5355558E-1,-1.4227473E0,1.4446603E1,4.686053E0,4.6474695E0,9.35484E0],"categories":[],"categories_nodes":[],"categories_segments":[],"categories_sizes":[],"default_left":[0,0,0,0,0,0,0,0,0,0,0,0,0,0,0,0,0,0,0,0,0,0,0,0,0,0,0,0,0,0,0],"id":5,"left_children":[1,3,5,-1,7,-1,9,11,13,15,-1,17,19,-1,-1,21,-1,23,25,-1,-1,27,29,-1,-1,-1,-1,-1,-1,-1,-1],"loss_changes":[7.273828E6,7.179416E5,1.150514E6,0E0,2.1728675E5,0E0,6.67498E5,1.1309425E5,1.1012432E4,3.560055E5,0E0,9.250225E4,3.130183E3,0E0,0E0,1.428245E5,0E0,9.15815E4,2.1992266E3,0E0,0E0,1.894795E5,1.3472375E4,0E0,0E0,0E0,0E0,0E0,0E0,0E0,0E0],"parents":[2147483647,0,0,1,1,2,2,4,4,6,6,7,7,8,8,9,9,11,11,12,12,15,15,17,17,18,18,21,21,22,22],"right_children":[2,4,6,-1,8,-1,10,12,14,16,-1,18,20,-1,-1,22,-1,24,26,-1,-1,28,30,-1,-1,-1,-1,-1,-1,-1,-1],"split_conditions":[1E0,2E0,4E0,8.505133E0,6E0,-2.73169E0,1E0,1E0,1E0,1E0,-5.022555E-1,1E0,3E0,1.3030535E0,-6.0954297E-1,1E0,1.2573652E0,1E0,3E0,8.091183E-1,-4.0922898E-1,1E0,5E0,-4.305219E0,-1.5746099E0,-4.5355558E-1,-1.4227473E0,1.4446603E1,4.686053E0,4.6474695E0,9.35484E0],"split_indices":[14,3,1,0,0,0,13,51,20,58,0,45,3,0,0,53,0,15,1,0,0,62,1,0,0,0,0,0,0,0,0],"split_type":[0,0,0,0,0,0,0,0,0,0,0,0,0,0,0,0,0,0,0,0,0,0,0,0,0,0,0,0,0,0,0],"sum_hessian":[4.92E2,3.73E2,1.19E2,9E0,3.64E2,1.3E1,1.06E2,3.4E2,2.4E1,9.7E1,9E0,3.26E2,1.4E1,1.6E1,8E0,9.1E1,6E0,3.02E2,2.4E1,7E0,7E0,7.3E1,1.8E1,2.73E2,2.9E1,9E0,1.5E1,6.7E1,6E0,7E0,1.1E1],"tree_param":{"num_deleted":"0","num_feature":"82","num_nodes":"31","size_leaf_vector":"1"}},{"base_weights":[8.742826E0,-6.6910866E1,2.4311928E2,1.036444E1,-7.261764E1,-9.1768026E-1,2.6942252E2,-8.257469E1,1.8682996E0,2.8493784E2,-1.1421944E-1,-8.722691E1,2.6963441E0,1.5544469E1,-1.4398819E0,1.4135093E1,1.7455504E2,-8.978686E1,3.8455927E-1,3.4332564E-1,-2.0338234E-1,-6.2629235E-1,1.5732868E0,7.76725E1,2.542643E2,-4.460171E0,-3.0196147E0,1.559192E0,4.9418116E0,6.2955866E0,1.3812007E1],"categories":[],"categories_nodes":[],"categories_segments":[],"categories_sizes":[],"default_left":[0,0,0,0,0,0,0,0,0,0,0,0,0,0,0,0,0,0,0,0,0,0,0,0,0,0,0,0,0,0,0],"id":6,"left_children":[1,3,5,-1,7,-1,9,11,13,15,-1,17,19,21,-1,-1,23,25,-1,-1,-1,-1,-1,27,29,-1,-1,-1,-1,-1,-1],"loss_changes":[8.896219E6,6.737001E5,8.572035E5,0E0,2.7716925E5,0E0,4.712305E5,1.3101425E5,2.1992982E4,3.05494E5,0E0,7.77825E4,7.233126E2,2.035957E4,0E0,0E0,1.83721E5,6.0488E4,0E0,0E0,0E0,0E0,0E0,1.5038703E4,2.9234562E4,0E0,0E0,0E0,0E0,0E0,0E0],"parents":[2147483647,0,0,1,1,2,2,4,4,6,6,7,7,8,8,9,9,11,11,12,12,13,13,16,16,17,17,23,23,24,24],"right_children":[2,4,6,-1,8,-1,10,12,14,16,-1,18,20,22,-1,-1,24,26,-1,-1,-1,-1,-1,28,30,-1,-1,-1,-1,-1,-1],"split_conditions":[1E0,2E0,4E0,1.036444E1,3E0,-9.1768026E-1,1E0,1E0,3E0,1E0,-1.1421944E-1,1E0,1E0,6E0,-1.4398819E0,1.4135093E1,1E0,1E0,3.8455927E-1,3.4332564E-1,-2.0338234E-1,-6.2629235E-1,1.5732868E0,1E0,1E0,-4.460171E0,-3.0196147E0,1.559192E0,4.9418116E0,6.2955866E0,1.3812007E1],"split_indices":[14,3,1,0,0,0,13,51,3,32,0,33,6,0,0,0,15,0,0,0,0,0,0,35,12,0,0,0,0,0,0],"split_type":[0,0,0,0,0,0,0,0,0,0,0,0,0,0,0,0,0,0,0,0,0,0,0,0,0,0,0,0,0,0,0],"sum_hessian":[4.99E2,3.78E2,1.21E2,6E0,3.72E2,1.1E1,1.1E2,3.28E2,4.4E1,1.04E2,6E0,3.11E2,1.7E1,3.2E1,1.2E1,7.8E1,2.6E1,3.03E2,8E0,1E1,7E0,1.3E1,1.9E1,1.3E1,1.3E1,2.01E2,1.02E2,7E0,6E0,6E0,7E0],"tree_param":{"num_deleted":"0","num_feature":"82","num_nodes":"31","size_leaf_vector":"1"}},{"base_weights":[-2.5262088E-1,-6.817037E1,2.1993375E2,-7.810912E1,3.745139E1,-3.3160072E1,2.578307E2,-8.5145294E1,-6.44922E0,5.583736E0,5.8302026E0,3.7887526E-1,-3.2989578E0,2.8138873E2,-6.51864E-1,-1.0040013E2,-5.9386265E1,-2.3925655E0,3.3701115E1,-9.81005E0,1.3586063E0,1.3499186E1,2.0862016E2,-1.1758217E2,-7.985426E1,-4.1933044E1,-4.8488083E0,1.3998263E-1,3.0879855E0,2.8486758E-1,-1.2549334E0,2.7857091E0,1.24002E1,-4.560431E0,-6.3760266E0,-4.0245137E0,-2.481028E0,-2.0318885E0,-2.8358388E-1],"categories":[],"categories_nodes":[],"categories_segments":[],"categories_sizes":[],"default_left":[0,0,0,0,0,0,0,0,0,0,0,0,0,0,0,0,0,0,0,0,0,0,0,0,0,0,0,0,0,0,0,0,0,0,0,0,0,0,0],"id":7,"left_children":[1,3,5,7,9,11,13,15,17,19,-1,-1,-1,21,-1,23,25,-1,27,29,-1,-1,31,33,35,37,-1,-1,-1,-1,-1,-1,-1,-1,-1,-1,-1,-1,-1],"loss_changes":[7.3851705E6,4.00344E5,1.1287555E6,1.733845E5,9.874174E4,2.8988816E4,6.56902E5,1.15092E5,6.4229777E4,1.0583061E4,0E0,0E0,0E0,6.14875E4,0E0,5.566625E4,9.793097E4,0E0,1.9812729E4,5.4598364E3,0E0,0E0,2.4632662E5,1.921275E4,1.6809E4,1.1848125E4,0E0,0E0,0E0,0E0,0E0,0E0,0E0,0E0,0E0,0E0,0E0,0E0,0E0],"parents":[2147483647,0,0,1,1,2,2,3,3,4,4,5,5,6,6,7,7,8,8,9,9,13,13,15,15,16,16,18,18,19,19,22,22,23,23,24,24,25,25],"right_children":[2,4,6,8,10,12,14,16,18,20,-1,-1,-1,22,-1,24,26,-1,28,30,-1,-1,32,34,36,38,-1,-1,-1,-1,-1,-1,-1,-1,-1,-1,-1,-1,-1],"split_conditions":[1E0,6E0,4E0,1E0,1E0,1E0,1E0,1E0,1E0,8E0,5.8302026E0,3.7887526E-1,-3.2989578E0,1E0,-6.51864E-1,1E0,1E0,-2.3925655E0,1E0,1E0,1.3586063E0,1.3499186E1,1E0,1E0,1E0,1E0,-4.8488083E0,1.3998263E-1,3.0879855E0,2.8486758E-1,-1.2549334E0,2.7857091E0,1.24002E1,-4.560431E0,-6.3760266E0,-4.0245137E0,-2.481028E0,-2.0318885E0,-2.8358388E-1],"split_indices":[14,0,1,15,15,6,13,0,12,0,0,0,0,32,0,9,16,0,55,9,0,0,15,11,12,25,0,0,0,0,0,0,0,0,0,0,0,0,0],"split_type":[0,0,0,0,0,0,0,0,0,0,0,0,0,0,0,0,0,0,0,0,0,0,0,0,0,0,0,0,0,0,0,0,0,0,0,0,0,0,0],"sum_hessian":[4.91E2,3.76E2,1.15E2,3.44E2,3.2E1,1.5E1,1E2,3.13E2,3.1E1,2.5E1,7E0,8E0,7E0,9.2E1,8E0,1.94E2,1.19E2,1.4E1,1.7E1,1.6E1,9E0,6.7E1,2.5E1,1.02E2,9.2E1,9E1,2.9E1,1E1,7E0,9E0,7E0,9E0,1.6E1,6.9E1,3.3E1,6.1E1,3.1E1,8.1E1,9E0],"tree_param":{"num_deleted":"0","num_feature":"82","num_nodes":"39","size_leaf_vector":"1"}},{"base_weights":[7.4186826E-1,-6.038385E1,1.8906386E2,1.0208072E1,-6.6592735E1,-3.8689274E1,2.2528177E2,-8.8978546E1,-3.8398285E1,9.9752176E-1,-3.9424777E0,2.4638617E2,-2.9751635E0,-9.316461E1,1.928602E0,-1.181251E1,-6.658111E1,2.6077792E2,6.2965393E-1,-9.751345E1,-3.088483E1,-1.9548841E1,1.5146492E0,-8.170345E1,-1.2496595E0,1.2108958E1,1.9129303E2,-4.986458E0,-3.6266296E0,-3.558916E-1,-1.967337E0,-5.1233715E-1,-3.0933344E0,-3.9293416E0,-8.381196E-1,4.988795E0,9.632679E0],"categories":[],"categories_nodes":[],"categories_segments":[],"categories_sizes":[],"default_left":[0,0,0,0,0,0,0,0,0,0,0,0,0,0,0,0,0,0,0,0,0,0,0,0,0,0,0,0,0,0,0,0,0,0,0,0,0],"id":8,"left_children":[1,3,5,-1,7,9,11,13,15,-1,-1,17,-1,19,-1,21,23,25,-1,27,29,31,-1,33,-1,-1,35,-1,-1,-1,-1,-1,-1,-1,-1,-1,-1],"loss_changes":[5.8917845E6,7.174801E5,1.0469095E6,0E0,2.3462462E5,5.9109773E4,6.91989E5,1.2232025E5,1.2657197E5,0E0,0E0,3.337085E5,0E0,5.109275E4,0E0,3.2685418E4,4.469025E4,3.016E3,0E0,3.14815E4,4.213162E3,2.99438E4,0E0,2.2176125E4,0E0,0E0,2.4793125E3,0E0,0E0,0E0,0E0,0E0,0E0,0E0,0E0,0E0,0E0],"parents":[2147483647,0,0,1,1,2,2,4,4,5,5,6,6,7,7,8,8,11,11,13,13,15,15,16,16,17,17,19,19,20,20,21,21,23,23,26,26],"right_children":[2,4,6,-1,8,10,12,14,16,-1,-1,18,-1,20,-1,22,24,26,-1,28,30,32,-1,34,-1,-1,36,-1,-1,-1,-1,-1,-1,-1,-1,-1,-1],"split_conditions":[1E0,2E0,4E0,1.0208072E1,1E0,1E0,2E0,4E0,1E0,9.9752176E-1,-3.9424777E0,1E0,-2.9751635E0,1E0,1.928602E0,7E0,1E0,1E0,6.2965393E-1,1E0,1E0,6E0,1.5146492E0,1E0,-1.2496595E0,1.2108958E1,1E0,-4.986458E0,-3.6266296E0,-3.558916E-1,-1.967337E0,-5.1233715E-1,-3.0933344E0,-3.9293416E0,-8.381196E-1,4.988795E0,9.632679E0],"split_indices":[14,3,1,0,0,6,13,4,8,0,0,65,0,41,0,1,19,53,0,9,10,1,0,45,0,0,0,0,0,0,0,0,0,0,0,0,0],"split_type":[0,0,0,0,0,0,0,0,0,0,0,0,0,0,0,0,0,0,0,0,0,0,0,0,0,0,0,0,0,0,0,0,0,0,0,0,0],"sum_hessian":[5.09E2,3.85E2,1.24E2,7E0,3.78E2,1.7E1,1.07E2,2.09E2,1.69E2,8E0,9E0,1E2,7E0,2.03E2,6E0,8.8E1,8.1E1,9.4E1,6E0,1.89E2,1.4E1,7.6E1,1.2E1,5.7E1,2.4E1,7.7E1,1.7E1,9.4E1,9.5E1,6E0,8E0,6.7E1,9E0,5.1E1,6E0,6E0,1.1E1],"tree_param":{"num_deleted":"0","num_feature":"82","num_nodes":"37","size_leaf_vector":"1"}},{"base_weights":[8.080868E0,-5.782157E1,1.885183E2,5.9496408E0,-6.357015E1,-3.6584064E1,2.1860875E2,-8.3525635E1,-3.6021366E1,5.865076E-1,-3.594353E0,2.3933788E2,-1.5482926E0,-8.907448E1,-2.215444E1,-1.1764425E1,-6.0558186E1,2.4715349E2,3.621284E0,-9.167613E1,-2.807056E-1,-1.4994687E0,1.3413827E-1,-2.415792E1,1.2118721E1,-7.119745E1,-1.0482339E0,1.13119755E1,4.493633E0,-4.6377654E0,-3.3996537E0,-1.504455E0,-6.170463E-2,7.628636E-2,1.4601594E0,-3.4059043E0,-1.1327317E0],"categories":[],"categories_nodes":[],"categories_segments":[],"categories_sizes":[],"default_left":[0,0,0,0,0,0,0,0,0,0,0,0,0,0,0,0,0,0,0,0,0,0,0,0,0,0,0,0,0,0,0,0,0,0,0,0,0],"id":9,"left_children":[1,3,5,-1,7,9,11,13,15,-1,-1,17,-1,19,21,23,25,27,-1,29,-1,-1,-1,31,33,35,-1,-1,-1,-1,-1,-1,-1,-1,-1,-1,-1],"loss_changes":[6.108768E6,4.2678188E5,9.421415E5,0E0,1.9716975E5,3.989565E4,6.496985E5,6.919625E4,9.2087375E4,0E0,0E0,1.101565E5,0E0,4.082375E4,5.802329E3,2.421889E4,2.807675E4,7.69895E4,0E0,2.4718125E4,0E0,0E0,0E0,1.1711564E4,6.0471504E3,1.1941406E4,0E0,0E0,0E0,0E0,0E0,0E0,0E0,0E0,0E0,0E0,0E0],"parents":[2147483647,0,0,1,1,2,2,4,4,5,5,6,6,7,7,8,8,11,11,13,13,14,14,15,15,16,16,17,17,19,19,23,23,24,24,25,25],"right_children":[2,4,6,-1,8,10,12,14,16,-1,-1,18,-1,20,22,24,26,28,-1,30,-1,-1,-1,32,34,36,-1,-1,-1,-1,-1,-1,-1,-1,-1,-1,-1],"split_conditions":[1E0,2E0,4E0,5.9496408E0,1E0,1E0,2E0,1E0,1E0,5.865076E-1,-3.594353E0,1E0,-1.5482926E0,4E0,1E0,1E0,1E0,1E0,3.621284E0,1E0,-2.807056E-1,-1.4994687E0,1.3413827E-1,6E0,1E0,1E0,-1.0482339E0,1.13119755E1,4.493633E0,-4.6377654E0,-3.3996537E0,-1.504455E0,-6.170463E-2,7.628636E-2,1.4601594E0,-3.4059043E0,-1.1327317E0],"split_indices":[14,3,1,0,0,6,13,41,8,0,0,62,0,4,16,21,45,8,0,9,0,0,0,0,12,19,0,0,0,0,0,0,0,0,0,0,0],"split_type":[0,0,0,0,0,0,0,0,0,0,0,0,0,0,0,0,0,0,0,0,0,0,0,0,0,0,0,0,0,0,0,0,0,0,0,0,0],"sum_hessian":[5.11E2,3.75E2,1.36E2,1E1,3.65E2,1.6E1,1.2E2,2.1E2,1.55E2,8E0,8E0,1.11E2,9E0,1.92E2,1.8E1,7.9E1,7.6E1,1.05E2,6E0,1.86E2,6E0,1.2E1,6E0,5.2E1,2.7E1,5.8E1,1.8E1,9.9E1,6E0,9.7E1,8.9E1,3.6E1,1.6E1,1.9E1,8E0,5.1E1,7E0],"tree_param":{"num_deleted":"0","num_feature":"82","num_nodes":"37","size_leaf_vector":"1"}},{"base_weights":[1.6387226E-1,-6.121308E1,1.8388658E2,-6.869586E1,3.4372974E1,-5.4303703E1,2.1664497E2,-7.350433E1,-1.6402372E1,1.271855E1,4.1450157E0,-3.7310237E-1,-3.5387194E0,2.4231514E2,-6.968426E-1,-8.6441734E1,-5.3363434E1,-5.030105E1,2.3402039E1,-9.8474786E-2,1.2172322E0,2.727978E2,1.8955013E2,-9.186761E1,-3.678509E1,-4.0628376E1,-8.96903E1,-2.6741736E0,-1.3173093E0,-3.1918168E-1,2.2246382E0,1.8855928E2,1.3558308E1,3.0166824E0,2.1150296E2,-4.74195E0,-3.293634E0,-7.7665E-1,-3.1072278E0,-2.038344E0,6.9467014E-1,-4.4550867E0,-1.5588475E0,3.971323E0,1.0770677E1,6.6774836E0,1.1019791E1],"categories":[],"categories_nodes":[],"categories_segments":[],"categories_sizes":[],"default_left":[0,0,0,0,0,0,0,0,0,0,0,0,0,0,0,0,0,0,0,0,0,0,0,0,0,0,0,0,0,0,0,0,0,0,0,0,0,0,0,0,0,0,0,0,0,0,0],"id":10,"left_children":[1,3,5,7,9,11,13,15,17,19,-1,-1,-1,21,-1,23,25,27,29,-1,-1,31,33,35,37,39,41,-1,-1,-1,-1,43,-1,-1,45,-1,-1,-1,-1,-1,-1,-1,-1,-1,-1,-1,-1],"loss_changes":[5.6926865E6,2.7401338E5,1.0030985E6,8.6654125E4,3.4542305E4,1.8120312E4,6.69855E5,7.7208E4,4.406347E4,4.9949155E3,0E0,0E0,0E0,8.8163E4,0E0,4.731825E4,5.4702406E4,1.01809766E3,1.3071039E4,0E0,0E0,8.22295E4,9.0289E4,3.441875E4,1.1964652E4,2.9930531E4,1.3649672E4,0E0,0E0,0E0,0E0,7.813444E4,0E0,0E0,2.393325E4,0E0,0E0,0E0,0E0,0E0,0E0,0E0,0E0,0E0,0E0,0E0,0E0],"parents":[2147483647,0,0,1,1,2,2,3,3,4,4,5,5,6,6,7,7,8,8,9,9,13,13,15,15,16,16,17,17,18,18,21,21,22,22,23,23,24,24,25,25,26,26,31,31,34,34],"right_children":[2,4,6,8,10,12,14,16,18,20,-1,-1,-1,22,-1,24,26,28,30,-1,-1,32,34,36,38,40,42,-1,-1,-1,-1,44,-1,-1,46,-1,-1,-1,-1,-1,-1,-1,-1,-1,-1,-1,-1],"split_conditions":[1E0,6E0,4E0,1E0,1E0,1E0,1E0,1E0,1E0,1E0,4.1450157E0,-3.7310237E-1,-3.5387194E0,3E0,-6.968426E-1,1E0,1E0,1E0,1E0,-9.8474786E-2,1.2172322E0,5E0,4E0,1E0,1E0,1E0,1E0,-2.6741736E0,-1.3173093E0,-3.1918168E-1,2.2246382E0,1E0,1.3558308E1,3.0166824E0,1E0,-4.74195E0,-3.293634E0,-7.7665E-1,-3.1072278E0,-2.038344E0,6.9467014E-1,-4.4550867E0,-1.5588475E0,3.971323E0,1.0770677E1,6.6774836E0,1.1019791E1],"split_indices":[14,0,1,15,52,6,13,0,12,18,0,0,0,3,0,25,16,9,7,0,0,1,3,9,17,12,21,0,0,0,0,12,0,0,15,0,0,0,0,0,0,0,0,0,0,0,0],"split_type":[0,0,0,0,0,0,0,0,0,0,0,0,0,0,0,0,0,0,0,0,0,0,0,0,0,0,0,0,0,0,0,0,0,0,0,0,0,0,0,0,0,0,0,0,0,0,0],"sum_hessian":[5.02E2,3.77E2,1.25E2,3.5E2,2.7E1,1.5E1,1.1E2,3.2E2,3E1,2.1E1,6E0,6E0,9E0,9.9E1,1.1E1,1.92E2,1.28E2,1.6E1,1.4E1,1.1E1,1E1,5.9E1,4E1,1.72E2,2E1,9.7E1,3.1E1,9E0,7E0,7E0,7E0,1.9E1,4E1,7E0,3.3E1,9E1,8.2E1,1.4E1,6E0,8.9E1,8E0,2.5E1,6E0,8E0,1.1E1,1.5E1,1.8E1],"tree_param":{"num_deleted":"0","num_feature":"82","num_nodes":"47","size_leaf_vector":"1"}},{"base_weights":[3.7650115E0,-5.4058136E1,1.6934572E2,8.114719E0,-6.055824E1,-4.756298E1,1.9578275E2,-7.806229E1,-3.702534E1,-9.8909974E-1,-2.883501E0,2.1934319E2,-1.266E0,-8.5461365E1,-2.2220184E1,-4.3969864E1,1.9197063E0,2.4879729E2,1.2608192E2,-9.037624E1,-3.420446E1,-1.0098142E1,-2.282146E0,-3.6830093E1,-3.9273298E0,1.1889338E1,1.7634662E2,4.3941338E1,2.0151492E2,-4.3846064E0,-3.164146E0,-3.1422803E0,5.022585E-1,-1.1858485E0,-2.557978E-2,-1.195082E0,-2.9082394E0,2.7071092E0,9.709133E0,2.7649E0,5.49686E-1,4.919191E0,1.1008544E1],"categories":[],"categories_nodes":[],"categories_segments":[],"categories_sizes":[],"default_left":[0,0,0,0,0,0,0,0,0,0,0,0,0,0,0,0,0,0,0,0,0,0,0,0,0,0,0,0,0,0,0,0,0,0,0,0,0,0,0,0,0,0,0],"id":11,"left_children":[1,3,5,-1,7,9,11,13,15,-1,-1,17,-1,19,21,23,-1,25,27,29,31,33,-1,35,-1,-1,37,39,41,-1,-1,-1,-1,-1,-1,-1,-1,-1,-1,-1,-1,-1,-1],"loss_changes":[4.8616385E6,5.94563E5,7.668195E5,0E0,1.4724662E5,4.7042305E3,6.292625E5,8.3833125E4,9.148989E4,0E0,0E0,2.478245E5,0E0,4.207325E4,8.588165E3,4.2087062E4,0E0,4.037E4,1.6352203E5,1.6568125E4,3.1705248E4,3.2011943E3,0E0,3.430997E4,0E0,0E0,8.0265625E4,7.795285E3,2.1541938E4,0E0,0E0,0E0,0E0,0E0,0E0,0E0,0E0,0E0,0E0,0E0,0E0,0E0,0E0],"parents":[2147483647,0,0,1,1,2,2,4,4,5,5,6,6,7,7,8,8,11,11,13,13,14,14,15,15,17,17,18,18,19,19,20,20,21,21,23,23,26,26,27,27,28,28],"right_children":[2,4,6,-1,8,10,12,14,16,-1,-1,18,-1,20,22,24,-1,26,28,30,32,34,-1,36,-1,-1,38,40,42,-1,-1,-1,-1,-1,-1,-1,-1,-1,-1,-1,-1,-1,-1],"split_conditions":[1E0,2E0,4E0,8.114719E0,1E0,1E0,1E0,1E0,7E0,-9.8909974E-1,-2.883501E0,1E0,-1.266E0,1E0,5E0,1E0,1.9197063E0,1E0,1E0,1E0,1E0,1E0,-2.282146E0,1E0,-3.9273298E0,1.1889338E1,1E0,1E0,1E0,-4.3846064E0,-3.164146E0,-3.1422803E0,5.022585E-1,-1.1858485E0,-2.557978E-2,-1.195082E0,-2.9082394E0,2.7071092E0,9.709133E0,2.7649E0,5.49686E-1,4.919191E0,1.1008544E1],"split_indices":[14,3,1,0,0,12,13,15,1,0,0,32,0,10,1,48,0,53,15,2,12,9,0,36,0,0,0,30,12,0,0,0,0,0,0,0,0,0,0,0,0,0,0],"split_type":[0,0,0,0,0,0,0,0,0,0,0,0,0,0,0,0,0,0,0,0,0,0,0,0,0,0,0,0,0,0,0,0,0,0,0,0,0,0,0,0,0,0,0],"sum_hessian":[5.05E2,3.75E2,1.3E2,9E0,3.66E2,1.4E1,1.16E2,2.08E2,1.58E2,7E0,7E0,1.05E2,1.1E1,1.83E2,2.5E1,1.46E2,1.2E1,7.8E1,2.7E1,1.66E2,1.7E1,1.9E1,6E0,1.28E2,1.8E1,5.9E1,1.9E1,1.4E1,1.3E1,1.12E2,5.4E1,9E0,8E0,6E0,1.3E1,9.7E1,3.1E1,6E0,1.3E1,8E0,6E0,6E0,7E0],"tree_param":{"num_deleted":"0","num_feature":"82","num_nodes":"43","size_leaf_vector":"1"}},{"base_weights":[-1.682097E0,-5.187989E1,1.6329169E2,6.6358147E0,-5.715367E1,1.9890051E2,-6.142534E1,-7.674751E1,-3.0393156E1,-2.0762444E0,2.1741856E2,-3.1654906E-1,-4.309636E0,-8.250318E1,-2.7988008E1,-2.0375202E1,-7.0292015E1,2.572834E2,1.4480777E2,-9.7372185E1,-6.1978416E1,-2.5672526E0,-3.373143E0,-2.8956017E1,1.960991E1,-8.369746E1,-1.1091636E0,1.9922795E2,2.9028235E2,4.26927E1,9.036466E0,-3.7665381E0,-5.220184E0,-2.984713E0,-6.7548317E-1,-2.2168443E0,1.9421648E0,-9.1518384E-1,-2.5445423E0,2.0717964E-1,1.3946679E0,-2.6089404E0,-4.6626377E0,3.9615474E0,1.0332142E1,9.374664E0,1.5789298E1,-1.8441264E-1,4.17883E0],"categories":[],"categories_nodes":[],"categories_segments":[],"categories_sizes":[],"default_left":[0,0,0,0,0,0,0,0,0,0,0,0,0,0,0,0,0,0,0,0,0,0,0,0,0,0,0,0,0,0,0,0,0,0,0,0,0,0,0,0,0,0,0,0,0,0,0,0,0],"id":12,"left_children":[1,3,5,-1,7,9,11,13,15,-1,17,-1,-1,19,21,23,25,27,29,31,33,-1,35,37,39,41,-1,43,45,47,-1,-1,-1,-1,-1,-1,-1,-1,-1,-1,-1,-1,-1,-1,-1,-1,-1,-1,-1],"loss_changes":[4.238955E6,4.283805E5,9.729075E5,0E0,1.977325E5,4.84763E5,3.2615375E4,5.8582875E4,6.3686688E4,0E0,2.262435E5,0E0,0E0,5.1382E4,1.8343438E4,4.6582055E4,1.6742203E4,3.370925E4,2.1106375E5,1.414125E4,1.9415125E4,0E0,3.6825652E4,2.4464883E4,4.086042E3,4.206328E3,0E0,6.715825E4,7.62435E4,3.7608168E4,0E0,0E0,0E0,0E0,0E0,0E0,0E0,0E0,0E0,0E0,0E0,0E0,0E0,0E0,0E0,0E0,0E0,0E0,0E0],"parents":[2147483647,0,0,1,1,2,2,4,4,5,5,6,6,7,7,8,8,10,10,13,13,14,14,15,15,16,16,17,17,18,18,19,19,20,20,22,22,23,23,24,24,25,25,27,27,28,28,29,29],"right_children":[2,4,6,-1,8,10,12,14,16,-1,18,-1,-1,20,22,24,26,28,30,32,34,-1,36,38,40,42,-1,44,46,48,-1,-1,-1,-1,-1,-1,-1,-1,-1,-1,-1,-1,-1,-1,-1,-1,-1,-1,-1],"split_conditions":[1E0,2E0,1E0,6.6358147E0,1E0,4E0,1E0,1E0,1E0,-2.0762444E0,3E0,-3.1654906E-1,-4.309636E0,1E0,1E0,1E0,3E0,1E0,1E0,1E0,1E0,-2.5672526E0,3E0,1E0,8E0,2E0,-1.1091636E0,1E0,1E0,1E0,9.036466E0,-3.7665381E0,-5.220184E0,-2.984713E0,-6.7548317E-1,-2.2168443E0,1.9421648E0,-9.1518384E-1,-2.5445423E0,2.0717964E-1,1.3946679E0,-2.6089404E0,-4.6626377E0,3.9615474E0,1.0332142E1,9.374664E0,1.5789298E1,-1.8441264E-1,4.17883E0],"split_indices":[14,3,23,0,0,1,13,25,16,0,3,0,0,9,12,21,0,0,35,11,41,0,1,36,0,0,0,12,2,44,0,0,0,0,0,0,0,0,0,0,0,0,0,0,0,0,0,0,0],"split_type":[0,0,0,0,0,0,0,0,0,0,0,0,0,0,0,0,0,0,0,0,0,0,0,0,0,0,0,0,0,0,0,0,0,0,0,0,0,0,0,0,0,0,0,0,0,0,0,0,0],"sum_hessian":[5.09E2,3.91E2,1.18E2,9E0,3.82E2,1.02E2,1.6E1,2.19E2,1.63E2,7E0,9.5E1,7E0,9E0,1.95E2,2.4E1,1.32E2,3.1E1,5.9E1,3.6E1,1.1E2,8.5E1,1E1,1.4E1,1.09E2,2.3E1,2.3E1,8E0,2.5E1,3.4E1,1.4E1,2.2E1,7.2E1,3.8E1,7.6E1,9E0,7E0,7E0,8.6E1,2.3E1,1.1E1,1.2E1,1.3E1,1E1,7E0,1.8E1,1.8E1,1.6E1,8E0,6E0],"tree_param":{"num_deleted":"0","num_feature":"82","num_nodes":"49","size_leaf_vector":"1"}},{"base_weights":[5.222043E0,-4.586728E1,1.6522997E2,6.1084604E0,-5.1852108E1,-2.2543101E0,1.873935E2,-6.8868324E1,-3.0276506E1,2.0683795E2,-2.323771E0,-7.56722E1,-5.4062877E0,-8.466667E0,-5.2094425E1,2.3133192E2,1.3490321E2,-8.763779E1,-6.2557514E1,-3.6228024E1,2.146902E0,-1.4307497E1,1.2016915E0,-6.2256092E1,-9.3173844E-1,1.7716687E2,2.5859055E2,5.110052E-1,1.8023586E2,-3.9967804E0,-2.2052124E0,-2.9485734E0,-1.4706063E0,-9.312372E-1,-1.9377645E0,-1.0984877E0,-2.6135996E-1,-3.050927E0,-4.7016385E-1,3.5986063E0,9.2354765E0,1.0130667E1,1.5951323E1,1.0366822E1,2.6302447E0],"categories":[],"categories_nodes":[],"categories_segments":[],"categories_sizes":[],"default_left":[0,0,0,0,0,0,0,0,0,0,0,0,0,0,0,0,0,0,0,0,0,0,0,0,0,0,0,0,0,0,0,0,0,0,0,0,0,0,0,0,0,0,0,0,0],"id":13,"left_children":[1,3,5,-1,7,-1,9,11,13,15,-1,17,19,21,23,25,27,29,31,33,-1,35,-1,37,-1,39,41,-1,43,-1,-1,-1,-1,-1,-1,-1,-1,-1,-1,-1,-1,-1,-1,-1,-1],"loss_changes":[4.1015205E6,4.2736856E5,5.9458475E5,0E0,1.3266819E5,0E0,5.29904E5,8.811644E4,7.808758E4,1.361885E5,0E0,2.1319E4,3.793138E4,1.805152E4,2.4225047E4,4.48865E4,1.6163994E5,1.7258125E3,7.2635938E3,3.260625E2,0E0,6.2305576E3,0E0,1.9195266E4,0E0,6.2697375E4,2.68755E4,0E0,1.17753125E5,0E0,0E0,0E0,0E0,0E0,0E0,0E0,0E0,0E0,0E0,0E0,0E0,0E0,0E0,0E0,0E0],"parents":[2147483647,0,0,1,1,2,2,4,4,6,6,7,7,8,8,9,9,11,11,12,12,13,13,14,14,15,15,16,16,17,17,18,18,19,19,21,21,23,23,25,25,26,26,28,28],"right_children":[2,4,6,-1,8,-1,10,12,14,16,-1,18,20,22,24,26,28,30,32,34,-1,36,-1,38,-1,40,42,-1,44,-1,-1,-1,-1,-1,-1,-1,-1,-1,-1,-1,-1,-1,-1,-1,-1],"split_conditions":[1E0,2E0,4E0,6.1084604E0,1E0,-2.2543101E0,2E0,1E0,1E0,1E0,-2.323771E0,1E0,1E0,1E0,1E0,5E0,1E0,1E0,1E0,1E0,2.146902E0,1E0,1.2016915E0,1E0,-9.3173844E-1,1E0,1E0,5.110052E-1,1E0,-3.9967804E0,-2.2052124E0,-2.9485734E0,-1.4706063E0,-9.312372E-1,-1.9377645E0,-1.0984877E0,-2.6135996E-1,-3.050927E0,-4.7016385E-1,3.5986063E0,9.2354765E0,1.0130667E1,1.5951323E1,1.0366822E1,2.6302447E0],"split_indices":[14,3,1,0,0,0,13,25,8,32,0,9,6,23,19,1,15,15,41,12,0,7,0,45,0,12,26,0,56,0,0,0,0,0,0,0,0,0,0,0,0,0,0,0,0],"split_type":[0,0,0,0,0,0,0,0,0,0,0,0,0,0,0,0,0,0,0,0,0,0,0,0,0,0,0,0,0,0,0,0,0,0,0,0,0,0,0,0,0,0,0,0,0],"sum_hessian":[4.99E2,3.79E2,1.2E2,1.1E1,3.68E2,1.1E1,1.09E2,2.04E2,1.64E2,1.01E2,8E0,1.84E2,2E1,8.3E1,8.1E1,7.3E1,2.8E1,9.2E1,9.2E1,1.3E1,7E0,7.2E1,1.1E1,6E1,2.1E1,2.8E1,4.5E1,8E0,2E1,8.5E1,7E0,8E1,1.2E1,6E0,7E0,3.1E1,4.1E1,5.3E1,7E0,8E0,2E1,3.8E1,7E0,1.3E1,7E0],"tree_param":{"num_deleted":"0","num_feature":"82","num_nodes":"45","size_leaf_vector":"1"}},{"base_weights":[9.431736E-1,-4.3801258E1,1.4818355E2,1.4533942E2,-5.04138E1,-2.0100626E1,1.7124033E2,1.0470355E1,1.2165623E0,-6.852222E1,-2.886479E1,2.3133566E0,-3.2850015E0,1.8733412E2,-7.821902E-1,-7.3689545E1,-2.2370445E1,-5.9488964E0,-4.7949085E1,1.9692392E2,2.447186E0,-8.4824715E1,-5.9165462E1,-6.033585E-1,-1.2963262E0,-1.3819926E1,2.1701674E0,-3.8111374E1,-3.696999E0,1.5681908E2,9.961354E0,-3.2311482E0,-4.7452254E0,-2.928559E0,-1.0452209E0,-1.3272871E0,4.0841147E-1,-9.9383587E-1,-2.5080423E0,3.6599736E0,8.033303E0],"categories":[],"categories_nodes":[],"categories_segments":[],"categories_sizes":[],"default_left":[0,0,0,0,0,0,0,0,0,0,0,0,0,0,0,0,0,0,0,0,0,0,0,0,0,0,0,0,0,0,0,0,0,0,0,0,0,0,0,0,0],"id":14,"left_children":[1,3,5,7,9,11,13,-1,-1,15,17,-1,-1,19,-1,21,23,25,27,29,-1,31,33,-1,-1,35,-1,37,-1,39,-1,-1,-1,-1,-1,-1,-1,-1,-1,-1,-1],"loss_changes":[3.3192345E6,4.9368694E5,4.6047775E5,1.3361756E5,1.4329875E5,6.5285758E4,3.1897275E5,0E0,0E0,4.5934062E4,7.5436766E4,0E0,0E0,1.0567E5,0E0,2.2220438E4,7.775137E2,3.5621695E4,2.821036E4,4.64215E4,0E0,1.545025E4,1.7759406E4,0E0,0E0,2.6738613E4,0E0,2.025032E4,0E0,5.0803812E4,0E0,0E0,0E0,0E0,0E0,0E0,0E0,0E0,0E0,0E0,0E0],"parents":[2147483647,0,0,1,1,2,2,3,3,4,4,5,5,6,6,9,9,10,10,13,13,15,15,16,16,17,17,18,18,19,19,21,21,22,22,25,25,27,27,29,29],"right_children":[2,4,6,8,10,12,14,-1,-1,16,18,-1,-1,20,-1,22,24,26,28,30,-1,32,34,-1,-1,36,-1,38,-1,40,-1,-1,-1,-1,-1,-1,-1,-1,-1,-1,-1],"split_conditions":[1E0,2E0,4E0,1E0,1E0,1E0,2E0,1.0470355E1,1.2165623E0,1E0,1E0,2.3133566E0,-3.2850015E0,1E0,-7.821902E-1,1E0,1E0,1E0,1E0,1E0,2.447186E0,1E0,1E0,-6.033585E-1,-1.2963262E0,6E0,2.1701674E0,1E0,-3.696999E0,6E0,9.961354E0,-3.2311482E0,-4.7452254E0,-2.928559E0,-1.0452209E0,-1.3272871E0,4.0841147E-1,-9.9383587E-1,-2.5080423E0,3.6599736E0,8.033303E0],"split_indices":[14,3,1,7,0,6,13,0,0,41,8,0,0,62,0,9,10,22,48,15,0,11,11,0,0,0,0,36,0,1,0,0,0,0,0,0,0,0,0,0,0],"split_type":[0,0,0,0,0,0,0,0,0,0,0,0,0,0,0,0,0,0,0,0,0,0,0,0,0,0,0,0,0,0,0,0,0,0,0,0,0,0,0,0,0],"sum_hessian":[5.01E2,3.85E2,1.16E2,1.2E1,3.73E2,1.4E1,1.02E2,6E0,6E0,2.01E2,1.72E2,6E0,8E0,9.4E1,8E0,1.8E2,2.1E1,7.9E1,9.3E1,8.7E1,7E0,9.8E1,8.2E1,1.1E1,1E1,7E1,9E0,7.5E1,1.8E1,3.9E1,4.8E1,6.7E1,3.1E1,6.8E1,1.4E1,4.1E1,2.9E1,4.2E1,3.3E1,1.1E1,2.8E1],"tree_param":{"num_deleted":"0","num_feature":"82","num_nodes":"41","size_leaf_vector":"1"}},{"base_weights":[1.1276159E0,-4.3718143E1,1.4602571E2,5.5023503E0,-4.8261585E1,-1.270808E1,1.6596062E2,-6.381752E1,-2.663804E1,2.2768993E0,-2.9740689E0,1.8158386E2,1.2340692E-2,-6.750208E1,-1.4889616E0,-3.479691E0,-4.660543E1,2.0889731E2,1.2694759E2,-7.213346E1,5.1550066E-1,-2.563857E0,2.4440885E0,-9.065004E0,1.4254376E0,-3.364202E1,-3.19257E0,1.0026979E1,5.220573E0,4.1203762E1,1.7406117E2,-3.508932E0,-2.4336157E0,-6.3453054E-1,1.52852E0,-1.774415E0,-6.947642E-1,2.5563964E-1,3.2700331E0,3.84066E0,8.830493E0],"categories":[],"categories_nodes":[],"categories_segments":[],"categories_sizes":[],"default_left":[0,0,0,0,0,0,0,0,0,0,0,0,0,0,0,0,0,0,0,0,0,0,0,0,0,0,0,0,0,0,0,0,0,0,0,0,0,0,0,0,0],"id":15,"left_children":[1,3,5,-1,7,9,11,13,15,-1,-1,17,-1,19,21,23,25,27,29,31,-1,-1,-1,33,-1,35,-1,-1,-1,37,39,-1,-1,-1,-1,-1,-1,-1,-1,-1,-1],"loss_changes":[3.228318E6,2.9720125E5,3.7454475E5,0E0,1.2218731E5,5.4808527E4,2.702155E5,4.9098875E4,7.2561805E4,0E0,0E0,1.0477375E5,0E0,7.533931E4,4.7067266E4,1.5185922E4,2.41595E4,5.596675E4,1.3290525E5,1.6497438E4,0E0,0E0,0E0,1.5499298E4,0E0,5.7150547E3,0E0,0E0,0E0,1.5937781E4,2.39525E4,0E0,0E0,0E0,0E0,0E0,0E0,0E0,0E0,0E0,0E0],"parents":[2147483647,0,0,1,1,2,2,4,4,5,5,6,6,7,7,8,8,11,11,13,13,14,14,15,15,16,16,17,17,18,18,19,19,23,23,25,25,29,29,30,30],"right_children":[2,4,6,-1,8,10,12,14,16,-1,-1,18,-1,20,22,24,26,28,30,32,-1,-1,-1,34,-1,36,-1,-1,-1,38,40,-1,-1,-1,-1,-1,-1,-1,-1,-1,-1],"split_conditions":[1E0,2E0,4E0,5.5023503E0,1E0,1E0,1E0,1E0,1E0,2.2768993E0,-2.9740689E0,3E0,1.2340692E-2,1E0,1E0,1E0,1E0,1E0,1E0,1E0,5.1550066E-1,-2.563857E0,2.4440885E0,1E0,1.4254376E0,1E0,-3.19257E0,1.0026979E1,5.220573E0,1E0,1E0,-3.508932E0,-2.4336157E0,-6.3453054E-1,1.52852E0,-1.774415E0,-6.947642E-1,2.5563964E-1,3.2700331E0,3.84066E0,8.830493E0],"split_indices":[14,3,1,0,0,6,13,33,8,0,0,3,0,41,6,22,10,43,35,2,0,0,0,19,0,45,0,0,0,15,15,0,0,0,0,0,0,0,0,0,0],"split_type":[0,0,0,0,0,0,0,0,0,0,0,0,0,0,0,0,0,0,0,0,0,0,0,0,0,0,0,0,0,0,0,0,0,0,0,0,0,0,0,0,0],"sum_hessian":[4.94E2,3.78E2,1.16E2,9E0,3.69E2,1.3E1,1.03E2,2.13E2,1.56E2,6E0,7E0,9.4E1,9E0,2.01E2,1.2E1,7.3E1,8.3E1,6E1,3.4E1,1.9E2,1.1E1,6E0,6E0,6.4E1,9E0,5.7E1,2.6E1,4.9E1,1.1E1,1.3E1,2.1E1,1.33E2,5.7E1,5.8E1,6E0,4.1E1,1.6E1,7E0,6E0,6E0,1.5E1],"tree_param":{"num_deleted":"0","num_feature":"82","num_nodes":"41","size_leaf_vector":"1"}},{"base_weights":[2.3646417E0,-4.26076E1,1.4197462E2,4.6329145E0,-4.6469727E1,7.4437675E1,2.0633589E2,-6.0795982E1,-2.5849186E1,-6.20413E1,1.2631688E2,1.0066644E1,5.9926963E0,-6.71625E1,-1.8857403E1,-7.2625365E0,-4.2019855E1,-3.9118521E0,-1.0664399E0,5.3244003E1,1.6597578E2,-7.111504E1,-2.9445523E-1,-3.976061E1,2.5059617E0,-1.6839655E1,2.15862E1,-4.936136E1,-1.7156286E1,1.8129766E-1,3.402311E0,3.5454977E0,8.351127E0,-2.8585746E0,-4.1178746E0,-8.268804E-1,-2.5214348E0,-3.9670387E-1,-2.730097E0,2.606898E0,-5.2487332E-2,-2.4783146E0,-1.6322649E-1,3.4571365E-1,-1.2258549E0],"categories":[],"categories_nodes":[],"categories_segments":[],"categories_sizes":[],"default_left":[0,0,0,0,0,0,0,0,0,0,0,0,0,0,0,0,0,0,0,0,0,0,0,0,0,0,0,0,0,0,0,0,0,0,0,0,0,0,0,0,0,0,0,0,0],"id":16,"left_children":[1,3,5,-1,7,9,11,13,15,17,19,-1,-1,21,23,25,27,-1,-1,29,31,33,-1,35,-1,37,39,41,43,-1,-1,-1,-1,-1,-1,-1,-1,-1,-1,-1,-1,-1,-1,-1,-1],"loss_changes":[3.2321178E6,2.2768556E5,5.233755E5,0E0,1.1015156E5,4.601466E5,4.790775E4,5.7856188E4,4.7180844E4,1.5194445E4,1.2198344E5,0E0,0E0,4.5613188E4,5.2584242E4,2.135281E4,1.42076875E4,0E0,0E0,2.0645586E4,3.4235688E4,1.8143625E4,0E0,7.6237266E3,0E0,1.9481438E4,1.648E4,1.8505719E4,5.8679224E3,0E0,0E0,0E0,0E0,0E0,0E0,0E0,0E0,0E0,0E0,0E0,0E0,0E0,0E0,0E0,0E0],"parents":[2147483647,0,0,1,1,2,2,4,4,5,5,6,6,7,7,8,8,9,9,10,10,13,13,14,14,15,15,16,16,19,19,20,20,21,21,23,23,25,25,26,26,27,27,28,28],"right_children":[2,4,6,-1,8,10,12,14,16,18,20,-1,-1,22,24,26,28,-1,-1,30,32,34,-1,36,-1,38,40,42,44,-1,-1,-1,-1,-1,-1,-1,-1,-1,-1,-1,-1,-1,-1,-1,-1],"split_conditions":[1E0,2E0,1E0,4.6329145E0,1E0,1E0,1E0,1E0,1E0,1E0,1E0,1.0066644E1,5.9926963E0,1E0,1E0,1E0,1E0,-3.9118521E0,-1.0664399E0,4E0,1E0,1E0,-2.9445523E-1,1E0,2.5059617E0,1E0,4E0,1E0,3E0,1.8129766E-1,3.402311E0,3.5454977E0,8.351127E0,-2.8585746E0,-4.1178746E0,-8.268804E-1,-2.5214348E0,-3.9670387E-1,-2.730097E0,2.606898E0,-5.2487332E-2,-2.4783146E0,-1.6322649E-1,3.4571365E-1,-1.2258549E0],"split_indices":[14,3,17,0,0,10,53,10,8,7,35,0,0,41,7,12,45,0,0,0,15,4,0,5,0,16,0,19,1,0,0,0,0,0,0,0,0,0,0,0,0,0,0,0,0],"split_type":[0,0,0,0,0,0,0,0,0,0,0,0,0,0,0,0,0,0,0,0,0,0,0,0,0,0,0,0,0,0,0,0,0,0,0,0,0,0,0,0,0,0,0,0,0],"sum_hessian":[5.12E2,3.88E2,1.24E2,9E0,3.79E2,6.2E1,6.2E1,2.22E2,1.57E2,1.7E1,4.5E1,4.6E1,1.6E1,1.92E2,3E1,7.4E1,8.3E1,9E0,8E0,1.7E1,2.8E1,1.8E2,1.2E1,2.4E1,6E0,5.6E1,1.8E1,6.3E1,2E1,6E0,1.1E1,7E0,2.1E1,1.41E2,3.9E1,1.2E1,1.2E1,4.9E1,7E0,6E0,1.2E1,5.5E1,8E0,6E0,1.4E1],"tree_param":{"num_deleted":"0","num_feature":"82","num_nodes":"45","size_leaf_vector":"1"}},{"base_weights":[-1.029455E0,-4.1370083E1,1.4015894E2,7.438601E1,-4.6756767E1,-4.6164543E1,1.6847987E2,-4.6479112E-1,8.479987E0,-5.1227623E1,2.1255747E1,-2.442152E0,-1.1648624E0,1.8398572E2,8.185248E-1,-6.0563667E1,-3.639109E1,1.5234292E0,9.761575E0,1.1402845E2,2.1187491E2,-6.3678818E1,-1.2600365E1,-3.1793194E1,-3.0785975E0,2.3894553E-1,5.722456E-1,-3.4831682E-1,8.207863E0,1.7974892E2,2.6954434E2,-2.540023E0,-3.732078E0,-1.1321647E0,1.9601686E-1,-1.0312622E0,-2.5084934E0,8.580859E0,5.0105877E0,1.4221277E1,6.927635E0],"categories":[],"categories_nodes":[],"categories_segments":[],"categories_sizes":[],"default_left":[0,0,0,0,0,0,0,0,0,0,0,0,0,0,0,0,0,0,0,0,0,0,0,0,0,0,0,0,0,0,0,0,0,0,0,0,0,0,0,0,0],"id":17,"left_children":[1,3,5,7,9,11,13,-1,-1,15,17,-1,-1,19,-1,21,23,-1,25,27,29,31,33,35,-1,-1,-1,-1,-1,37,39,-1,-1,-1,-1,-1,-1,-1,-1,-1,-1],"loss_changes":[2.7786835E6,2.4151662E5,5.83142E5,1.7479373E5,1.12051E5,6.567969E2,2.1489875E5,0E0,0E0,4.4164312E4,3.0278682E3,0E0,0E0,1.32383E5,0E0,2.9852312E4,1.7335828E4,0E0,9.848486E1,2.3795188E5,4.135425E4,1.8982188E4,3.3150256E3,2.3852258E4,0E0,0E0,0E0,0E0,0E0,6.875875E3,3.4742E4,0E0,0E0,0E0,0E0,0E0,0E0,0E0,0E0,0E0,0E0],"parents":[2147483647,0,0,1,1,2,2,3,3,4,4,5,5,6,6,9,9,10,10,13,13,15,15,16,16,18,18,19,19,20,20,21,21,22,22,23,23,29,29,30,30],"right_children":[2,4,6,8,10,12,14,-1,-1,16,18,-1,-1,20,-1,22,24,-1,26,28,30,32,34,36,-1,-1,-1,-1,-1,38,40,-1,-1,-1,-1,-1,-1,-1,-1,-1,-1],"split_conditions":[1E0,1E0,4E0,1E0,6E0,1E0,1E0,-4.6479112E-1,8.479987E0,1E0,1E0,-2.442152E0,-1.1648624E0,6E0,8.185248E-1,1E0,1E0,1.5234292E0,1.6E1,1E0,1E0,1E0,1E0,1E0,-3.0785975E0,2.3894553E-1,5.722456E-1,-3.4831682E-1,8.207863E0,1E0,1E0,-2.540023E0,-3.732078E0,-1.1321647E0,1.9601686E-1,-1.0312622E0,-2.5084934E0,8.580859E0,5.0105877E0,1.4221277E1,6.927635E0],"split_indices":[14,37,1,9,0,23,23,0,0,0,9,0,0,1,0,47,46,0,0,12,26,22,12,36,0,0,0,0,0,53,35,0,0,0,0,0,0,0,0,0,0],"split_type":[0,0,0,0,0,0,0,0,0,0,0,0,0,0,0,0,0,0,0,0,0,0,0,0,0,0,0,0,0,0,0,0,0,0,0,0,0,0,0,0,0],"sum_hessian":[4.85E2,3.78E2,1.07E2,1.6E1,3.62E2,1.4E1,9.3E1,1E1,6E0,3.4E2,2.2E1,8E0,6E0,8.4E1,9E0,2.06E2,1.34E2,9E0,1.3E1,2.6E1,5.8E1,1.93E2,1.3E1,1.2E2,1.4E1,7E0,6E0,1E1,1.6E1,4.1E1,1.7E1,1.5E2,4.3E1,7E0,6E0,9.1E1,2.9E1,3.2E1,9E0,1E1,7E0],"tree_param":{"num_deleted":"0","num_feature":"82","num_nodes":"41","size_leaf_vector":"1"}},{"base_weights":[5.226114E0,-3.761105E1,1.2913591E2,9.1217125E1,-4.330011E1,1.4548643E2,-3.5118687E0,-7.408734E-1,7.7312465E0,-4.84256E1,-1.9181151E0,-1.0582867E1,1.6433856E2,-5.0342945E1,1.0483359E0,-1.5291222E1,2.4628195E1,1.772095E0,-2.9254115E0,1.7438403E2,-2.5650597E-1,-5.2519543E1,-9.452609E0,-1.8716076E-1,2.7149802E-1,-2.3120973E0,-2.1732292E0,1.615832E0,4.512739E-1,1.837989E2,8.3015233E-1,-2.4695005E0,-7.715477E-1,5.0193775E-1,-9.671676E-1,-9.127986E-1,5.4728794E-1,8.910888E0,4.797797E0],"categories":[],"categories_nodes":[],"categories_segments":[],"categories_sizes":[],"default_left":[0,0,0,0,0,0,0,0,0,0,0,0,0,0,0,0,0,0,0,0,0,0,0,0,0,0,0,0,0,0,0,0,0,0,0,0,0,0,0],"id":18,"left_children":[1,3,5,7,9,11,-1,-1,-1,13,15,17,19,21,23,25,27,-1,-1,29,-1,31,33,-1,-1,-1,35,-1,-1,37,-1,-1,-1,-1,-1,-1,-1,-1,-1],"loss_changes":[2.6949312E6,2.8221662E5,4.60127E5,1.5057977E5,7.673794E4,3.5971025E5,0E0,0E0,0E0,3.0659438E4,1.5237983E4,4.3885867E4,1.8669575E5,2.6923188E4,3.9342807E2,1.3527361E4,1.922459E3,0E0,0E0,1.45275E5,0E0,2.9999562E4,4.793789E3,0E0,0E0,0E0,6.320094E3,0E0,0E0,9.10785E4,0E0,0E0,0E0,0E0,0E0,0E0,0E0,0E0,0E0],"parents":[2147483647,0,0,1,1,2,2,3,3,4,4,5,5,9,9,10,10,11,11,12,12,13,13,14,14,15,15,16,16,19,19,21,21,22,22,26,26,29,29],"right_children":[2,4,6,8,10,12,-1,-1,-1,14,16,18,20,22,24,26,28,-1,-1,30,-1,32,34,-1,-1,-1,36,-1,-1,38,-1,-1,-1,-1,-1,-1,-1,-1,-1],"split_conditions":[1E0,1E0,1E0,1E0,3E0,4E0,-3.5118687E0,-7.408734E-1,7.7312465E0,1E0,1E0,1E0,1E0,1E0,3E0,1E0,8E0,1.772095E0,-2.9254115E0,1E0,-2.5650597E-1,1E0,3E0,-1.8716076E-1,2.7149802E-1,-2.3120973E0,4E0,1.615832E0,4.512739E-1,1E0,8.3015233E-1,-2.4695005E0,-7.715477E-1,5.0193775E-1,-9.671676E-1,-9.127986E-1,5.4728794E-1,8.910888E0,4.797797E0],"split_indices":[14,37,13,10,0,1,0,0,0,51,18,6,58,45,3,10,0,0,0,62,0,15,1,0,0,0,1,0,0,53,0,0,0,0,0,0,0,0,0],"split_type":[0,0,0,0,0,0,0,0,0,0,0,0,0,0,0,0,0,0,0,0,0,0,0,0,0,0,0,0,0,0,0,0,0,0,0,0,0,0,0],"sum_hessian":[5.05E2,3.76E2,1.29E2,1.5E1,3.61E2,1.2E2,9E0,7E0,8E0,3.21E2,4E1,1.3E1,1.07E2,3.09E2,1.2E1,2.7E1,1.3E1,7E0,6E0,1.01E2,6E0,2.93E2,1.6E1,6E0,6E0,6E0,2.1E1,6E0,7E0,9.5E1,6E0,2.69E2,2.4E1,6E0,1E1,9E0,1.2E1,7.6E1,1.9E1],"tree_param":{"num_deleted":"0","num_feature":"82","num_nodes":"39","size_leaf_vector":"1"}},{"base_weights":[-5.6683693E0,-4.129718E1,1.1683161E2,-4.5160347E1,6.884721E1,1.3102725E2,-3.4338832E0,-4.9358097E1,9.446698E0,5.6701045E0,-1.3396052E-1,-8.2616866E-2,1.4528032E2,-5.239712E1,-6.861571E0,-1.7761025E-1,9.0140325E-1,1.6542436E2,9.348027E1,-5.4883694E1,5.4289403E0,4.651542E-1,-7.974229E-1,7.8047256E0,4.25343E0,-6.56217E-2,1.354377E2,-2.5332103E0,-1.4174598E-1,7.478025E-1,-3.7948337E-1,7.5298805E0,1.9370774E0],"categories":[],"categories_nodes":[],"categories_segments":[],"categories_sizes":[],"default_left":[0,0,0,0,0,0,0,0,0,0,0,0,0,0,0,0,0,0,0,0,0,0,0,0,0,0,0,0,0,0,0,0,0],"id":19,"left_children":[1,3,5,7,9,11,-1,13,15,-1,-1,-1,17,19,21,-1,-1,23,25,27,29,-1,-1,-1,-1,-1,31,-1,-1,-1,-1,-1,-1],"loss_changes":[2.13856E6,1.6585512E5,3.1856038E5,8.488381E4,5.7145254E4,1.9626125E5,0E0,4.3583062E4,4.10634E3,0E0,0E0,0E0,7.55415E4,4.6208062E4,4.951849E3,0E0,0E0,2.242125E4,1.1749142E5,3.2878438E4,2.4976301E3,0E0,0E0,0E0,0E0,0E0,5.319353E4,0E0,0E0,0E0,0E0,0E0,0E0],"parents":[2147483647,0,0,1,1,2,2,3,3,4,4,5,5,7,7,8,8,12,12,13,13,14,14,17,17,18,18,19,19,20,20,26,26],"right_children":[2,4,6,8,10,12,-1,14,16,-1,-1,-1,18,20,22,-1,-1,24,26,28,30,-1,-1,-1,-1,-1,32,-1,-1,-1,-1,-1,-1],"split_conditions":[1E0,1E0,2E0,6E0,1E0,4E0,-3.4338832E0,1E0,8E0,5.6701045E0,-1.3396052E-1,-8.2616866E-2,1E0,1E0,3E0,-1.7761025E-1,9.0140325E-1,1E0,1E0,1E0,1E0,4.651542E-1,-7.974229E-1,7.8047256E0,4.25343E0,-6.56217E-2,1E0,-2.5332103E0,-1.4174598E-1,7.478025E-1,-3.7948337E-1,7.5298805E0,1.9370774E0],"split_indices":[14,52,13,0,7,1,0,45,0,0,0,0,32,41,1,0,0,43,15,51,6,0,0,0,0,0,56,0,0,0,0,0,0],"split_type":[0,0,0,0,0,0,0,0,0,0,0,0,0,0,0,0,0,0,0,0,0,0,0,0,0,0,0,0,0,0,0,0,0],"sum_hessian":[4.87E2,3.78E2,1.09E2,3.66E2,1.2E1,1.02E2,7E0,3.4E2,2.6E1,6E0,6E0,1E1,9.2E1,3.17E2,2.3E1,1.2E1,1.4E1,6.4E1,2.8E1,3.04E2,1.3E1,9E0,1.4E1,5.4E1,1E1,9E0,1.9E1,2.92E2,1.2E1,7E0,6E0,1.3E1,6E0],"tree_param":{"num_deleted":"0","num_feature":"82","num_nodes":"33","size_leaf_vector":"1"}},{"base_weights":[-8.362063E-3,-4.0159912E1,1.2283472E2,-4.45547E1,2.7282307E1,5.289289E1,1.6977094E2,-4.793693E1,-9.697226E0,2.3685248E0,2.5846183E-1,-2.7204832E1,1.3975888E2,1.903152E2,1.09207306E2,-5.0508286E1,-1.2815647E1,-2.566353E1,8.078946E0,-5.8743927E1,1.4339448E0,3.3472779E0,7.320302E0,9.342806E0,1.4558798E2,6.174457E0,2.2437541E0,-5.2323166E1,-1.0242067E1,-1.2146703E0,1.4026038E-1,-1.7741991E0,-5.876895E-1,-6.969118E-1,1.7736592E0,-3.5017655E0,-1.2334042E0,7.7111897E0,4.2331667E0,-2.3788252E0,6.984859E-2,-9.6471876E-1,7.025363E-2],"categories":[],"categories_nodes":[],"categories_segments":[],"categories_sizes":[],"default_left":[0,0,0,0,0,0,0,0,0,0,0,0,0,0,0,0,0,0,0,0,0,0,0,0,0,0,0,0,0,0,0,0,0,0,0,0,0,0,0,0,0,0,0],"id":20,"left_children":[1,3,5,7,9,11,13,15,17,-1,-1,19,21,23,25,27,29,31,33,35,-1,-1,-1,-1,37,-1,-1,39,41,-1,-1,-1,-1,-1,-1,-1,-1,-1,-1,-1,-1,-1,-1],"loss_changes":[2.4111108E6,1.1092144E5,3.8257125E5,4.0181688E4,1.2629775E4,3.5619428E5,5.937775E4,2.7566562E4,9.49523E3,0E0,0E0,5.4106465E4,2.16155E4,2.232375E3,2.739614E4,2.0682E4,5.548326E3,2.33908E3,1.3297272E4,8.333086E3,0E0,0E0,0E0,0E0,5.2295625E3,0E0,0E0,1.8051312E4,2.0019965E3,0E0,0E0,0E0,0E0,0E0,0E0,0E0,0E0,0E0,0E0,0E0,0E0,0E0,0E0],"parents":[2147483647,0,0,1,1,2,2,3,3,4,4,5,5,6,6,7,7,8,8,11,11,12,12,13,13,14,14,15,15,16,16,17,17,18,18,19,19,24,24,27,27,28,28],"right_children":[2,4,6,8,10,12,14,16,18,-1,-1,20,22,24,26,28,30,32,34,36,-1,-1,-1,-1,38,-1,-1,40,42,-1,-1,-1,-1,-1,-1,-1,-1,-1,-1,-1,-1,-1,-1],"split_conditions":[1E0,6E0,1E0,1E0,1E0,1E0,1E0,1E0,1E0,2.3685248E0,2.5846183E-1,1E0,1E0,1E0,1E0,1E0,1E0,1E0,1E0,1E0,1.4339448E0,3.3472779E0,7.320302E0,9.342806E0,1E0,6.174457E0,2.2437541E0,1E0,1E0,-1.2146703E0,1.4026038E-1,-1.7741991E0,-5.876895E-1,-6.969118E-1,1.7736592E0,-3.5017655E0,-1.2334042E0,7.7111897E0,4.2331667E0,-2.3788252E0,6.984859E-2,-9.6471876E-1,7.025363E-2],"split_indices":[14,0,17,15,18,35,53,45,12,0,0,15,15,5,43,51,2,9,7,0,0,0,0,0,2,0,0,70,21,0,0,0,0,0,0,0,0,0,0,0,0,0,0],"split_type":[0,0,0,0,0,0,0,0,0,0,0,0,0,0,0,0,0,0,0,0,0,0,0,0,0,0,0,0,0,0,0,0,0,0,0,0,0,0,0,0,0,0,0],"sum_hessian":[4.86E2,3.67E2,1.19E2,3.45E2,2.2E1,4.9E1,7E1,3.14E2,3.1E1,9E0,1.3E1,2.6E1,2.3E1,5E1,2E1,2.92E2,2.2E1,1.6E1,1.5E1,1.7E1,9E0,8E0,1.5E1,3.1E1,1.9E1,1.2E1,8E0,2.79E2,1.3E1,1.1E1,1.1E1,6E0,1E1,9E0,6E0,9E0,8E0,1E1,9E0,2.73E2,6E0,6E0,7E0],"tree_param":{"num_deleted":"0","num_feature":"82","num_nodes":"43","size_leaf_vector":"1"}},{"base_weights":[7.3999343E0,-2.9698076E1,1.20745445E2,6.1514015E0,-3.5233913E1,-2.5223756E0,1.4217622E2,-3.7638264E1,3.2990758E0,1.559546E2,-2.3418984E0,-5.067475E1,-2.000988E1,1.6596649E2,-2.9735127E-1,-5.3309933E1,-1.425384E-1,-1.4908924E1,-2.9023242E0,1.2792058E2,1.8323015E2,-2.7962625E0,-1.931495E0,-3.3319563E-1,-1.7665598E0,1.339178E0,7.3225183E0,8.762225E0,5.14557E0],"categories":[],"categories_nodes":[],"categories_segments":[],"categories_sizes":[],"default_left":[0,0,0,0,0,0,0,0,0,0,0,0,0,0,0,0,0,0,0,0,0,0,0,0,0,0,0,0,0],"id":21,"left_children":[1,3,5,-1,7,-1,9,11,-1,13,-1,15,17,19,-1,21,-1,23,-1,25,27,-1,-1,-1,-1,-1,-1,-1,-1],"loss_changes":[2.121908E6,3.6085688E5,4.8468462E5,0E0,1.0117106E5,0E0,3.1079E5,8.184934E4,0E0,1.71607E5,0E0,2.5702812E4,3.4743375E4,3.139225E4,0E0,1.469975E4,0E0,2.5793143E4,0E0,1.2040594E5,2.792875E4,0E0,0E0,0E0,0E0,0E0,0E0,0E0,0E0],"parents":[2147483647,0,0,1,1,2,2,4,4,6,6,7,7,9,9,11,11,12,12,13,13,15,15,17,17,19,19,20,20],"right_children":[2,4,6,-1,8,-1,10,12,-1,14,-1,16,18,20,-1,22,-1,24,-1,26,28,-1,-1,-1,-1,-1,-1,-1,-1],"split_conditions":[1E0,2E0,4E0,6.1514015E0,1E0,-2.5223756E0,1E0,1E0,3.2990758E0,1E0,-2.3418984E0,1E0,1E0,6E0,-2.9735127E-1,1E0,-1.425384E-1,1E0,-2.9023242E0,1E0,1E0,-2.7962625E0,-1.931495E0,-3.3319563E-1,-1.7665598E0,1.339178E0,7.3225183E0,8.762225E0,5.14557E0],"split_indices":[14,3,1,0,72,0,13,0,0,58,0,47,48,1,0,9,0,36,0,15,32,0,0,0,0,0,0,0,0],"split_type":[0,0,0,0,0,0,0,0,0,0,0,0,0,0,0,0,0,0,0,0,0,0,0,0,0,0,0,0,0],"sum_hessian":[5.02E2,3.79E2,1.23E2,1.1E1,3.68E2,1.3E1,1.1E2,3.61E2,7E0,1.03E2,7E0,2.06E2,1.55E2,9.7E1,6E0,1.95E2,1.1E1,1.41E2,1.4E1,3.4E1,6.3E1,9.5E1,1E2,1.1E2,3.1E1,1E1,2.4E1,5E1,1.3E1],"tree_param":{"num_deleted":"0","num_feature":"82","num_nodes":"29","size_leaf_vector":"1"}},{"base_weights":[-1.2945738E0,-3.3460747E1,9.933096E1,3.3947115E0,-3.629892E1,-1.5686413E0,1.1520201E2,-3.8231705E1,3.1009636E0,1.3084996E2,-1.2007116E0,-4.0410645E1,7.7053456E0,1.3887396E2,7.9372215E-1,-4.5433357E1,-2.0039122E1,7.302524E-1,-3.7192386E-1,1.2761331E2,1.1027237E1,-1.7993088E0,-3.2152379E0,-1.5877818E0,9.388168E-1,3.694006E0,7.393695E0],"categories":[],"categories_nodes":[],"categories_segments":[],"categories_sizes":[],"default_left":[0,0,0,0,0,0,0,0,0,0,0,0,0,0,0,0,0,0,0,0,0,0,0,0,0,0,0],"id":22,"left_children":[1,3,5,-1,7,-1,9,11,-1,13,-1,15,17,19,-1,21,23,-1,-1,25,-1,-1,-1,-1,-1,-1,-1],"loss_changes":[1.6891729E6,1.2718103E5,2.7585975E5,0E0,8.298944E4,0E0,2.5740525E5,3.8519562E4,0E0,8.9342625E4,0E0,3.589325E4,2.7765342E3,7.2401125E4,0E0,3.457775E4,4.908528E4,0E0,0E0,1.3446212E5,0E0,0E0,0E0,0E0,0E0,0E0,0E0],"parents":[2147483647,0,0,1,1,2,2,4,4,6,6,7,7,9,9,11,11,12,12,13,13,15,15,16,16,19,19],"right_children":[2,4,6,-1,8,-1,10,12,-1,14,-1,16,18,20,-1,22,24,-1,-1,26,-1,-1,-1,-1,-1,-1,-1],"split_conditions":[1E0,2E0,4E0,3.3947115E0,4E0,-1.5686413E0,1E0,1E0,3.1009636E0,1E0,-1.2007116E0,1E0,3E0,1E0,7.9372215E-1,1E0,1E0,7.302524E-1,-3.7192386E-1,1E0,1.1027237E1,-1.7993088E0,-3.2152379E0,-1.5877818E0,9.388168E-1,3.694006E0,7.393695E0],"split_indices":[14,3,1,0,4,0,13,51,0,62,0,18,3,54,0,22,12,0,0,15,0,0,0,0,0,0,0],"split_type":[0,0,0,0,0,0,0,0,0,0,0,0,0,0,0,0,0,0,0,0,0,0,0,0,0,0,0],"sum_hessian":[5.19E2,3.94E2,1.25E2,9E0,3.85E2,1.3E1,1.12E2,3.79E2,6E0,1.01E2,1.1E1,3.62E2,1.7E1,9.4E1,7E0,2.89E2,7.3E1,1.1E1,6E0,8.8E1,6E0,2.47E2,4.2E1,5.3E1,2E1,4.3E1,4.5E1],"tree_param":{"num_deleted":"0","num_feature":"82","num_nodes":"27","size_leaf_vector":"1"}},{"base_weights":[4.565769E-2,-3.1396763E1,1.0284082E2,3.7875133E0,-3.4151882E1,4.7144104E1,1.4338033E2,-4.0007607E1,-1.5689334E1,-6.343177E1,9.38756E1,1.622655E2,7.961621E1,-4.2128536E1,4.588536E0,-3.4474968E1,8.492315E0,-1.5192877E0,-4.1072836E0,5.2703785E1,6.3119655E0,1.9880945E2,6.270776E0,4.359642E0,1.4895511E0,-3.6836643E1,-7.089192E1,5.0872076E-1,-9.888422E-2,-4.584617E1,-9.335498E0,-1.6143864E1,3.37166E1,-2.2688572E0,5.7313905E0,5.750813E0,1.1068074E1,-1.8976271E0,-9.1678536E-1,-9.3752795E-1,-3.4890788E0,-2.2414818E0,-1.1175902E0,1.9247103E-1,-1.1690967E0,3.7148443E-1,-1.4875104E0,2.7008655E0,4.9676862E-1,-7.985532E-1,7.1011925E-1],"categories":[],"categories_nodes":[],"categories_segments":[],"categories_sizes":[],"default_left":[0,0,0,0,0,0,0,0,0,0,0,0,0,0,0,0,0,0,0,0,0,0,0,0,0,0,0,0,0,0,0,0,0,0,0,0,0,0,0,0,0,0,0,0,0,0,0,0,0,0,0],"id":23,"left_children":[1,3,5,-1,7,9,11,13,15,17,19,21,23,25,27,29,31,-1,-1,33,-1,35,-1,-1,-1,37,39,-1,-1,41,43,45,47,49,-1,-1,-1,-1,-1,-1,-1,-1,-1,-1,-1,-1,-1,-1,-1,-1,-1],"loss_changes":[1.6478548E6,1.2954091E5,2.600475E5,0E0,4.0453094E4,2.7931306E5,6.406225E4,2.7649219E4,4.330673E4,9.430414E3,6.3496812E4,7.2E1,1.1007602E4,3.8369375E4,7.0951184E2,1.46630625E4,2.7132355E4,0E0,0E0,9.434842E4,0E0,8.0221875E3,0E0,0E0,0E0,2.1171875E4,1.3312016E4,0E0,0E0,1.6509062E3,4.430874E3,9.907929E3,1.2090594E4,4.5349663E3,0E0,0E0,0E0,0E0,0E0,0E0,0E0,0E0,0E0,0E0,0E0,0E0,0E0,0E0,0E0,0E0,0E0],"parents":[2147483647,0,0,1,1,2,2,4,4,5,5,6,6,7,7,8,8,9,9,10,10,11,11,12,12,13,13,14,14,15,15,16,16,19,19,21,21,25,25,26,26,29,29,30,30,31,31,32,32,33,33],"right_children":[2,4,6,-1,8,10,12,14,16,18,20,22,24,26,28,30,32,-1,-1,34,-1,36,-1,-1,-1,38,40,-1,-1,42,44,46,48,50,-1,-1,-1,-1,-1,-1,-1,-1,-1,-1,-1,-1,-1,-1,-1,-1,-1],"split_conditions":[1E0,2E0,1E0,3.7875133E0,1E0,1E0,1E0,1E0,4E0,1E0,1E0,1E0,1E0,1E0,4E0,1E0,1E0,-1.5192877E0,-4.1072836E0,1E0,6.3119655E0,1E0,6.270776E0,4.359642E0,1.4895511E0,1E0,1E0,5.0872076E-1,-9.888422E-2,2E0,1E0,1E0,5E0,6E0,5.7313905E0,5.750813E0,1.1068074E1,-1.8976271E0,-9.1678536E-1,-9.3752795E-1,-3.4890788E0,-2.2414818E0,-1.1175902E0,1.9247103E-1,-1.1690967E0,3.7148443E-1,-1.4875104E0,2.7008655E0,4.9676862E-1,-7.985532E-1,7.1011925E-1],"split_indices":[14,3,17,0,10,10,53,51,1,4,12,6,43,22,1,6,12,0,0,2,0,2,0,0,0,8,6,0,0,2,2,9,1,1,0,0,0,0,0,0,0,0,0,0,0,0,0,0,0,0,0],"split_type":[0,0,0,0,0,0,0,0,0,0,0,0,0,0,0,0,0,0,0,0,0,0,0,0,0,0,0,0,0,0,0,0,0,0,0,0,0,0,0,0,0,0,0,0,0,0,0,0,0,0,0],"sum_hessian":[5.07E2,3.89E2,1.18E2,8E0,3.81E2,5.1E1,6.7E1,2.88E2,9.3E1,1.5E1,3.6E1,5E1,1.7E1,2.75E2,1.3E1,5.2E1,4.1E1,9E0,6E0,2.1E1,1.5E1,1.4E1,3.6E1,1.1E1,6E0,2.35E2,4E1,6E0,7E0,3.5E1,1.7E1,2.1E1,2E1,1.3E1,8E0,8E0,6E0,1.71E2,6.4E1,6E0,3.4E1,2.7E1,8E0,1E1,7E0,9E0,1.2E1,8E0,1.2E1,7E0,6E0],"tree_param":{"num_deleted":"0","num_feature":"82","num_nodes":"51","size_leaf_vector":"1"}},{"base_weights":[3.3527472E0,-2.909396E1,1.0554744E2,6.333613E0,-3.3808002E1,4.8723938E1,1.4772464E2,-4.71081E1,-1.538736E1,-6.0086052E1,9.342606E1,7.4631853E0,8.460635E1,-5.213172E1,-2.1368542E1,-2.0386671E1,1.6093103E0,-3.5643394E0,-1.6714971E0,5.306464E1,1.487514E2,4.913404E0,2.5505662E0,-5.4795128E1,-4.5656455E-1,-2.7138908E1,-5.5994093E-3,-1.2627106E1,-4.4665306E1,5.451198E-1,4.35645E0,8.076662E0,4.034823E0,-1.829532E0,-2.7680163E0,-1.3848556E0,-4.1268396E-1,-3.959155E-1,-2.5186925E0,-2.9606278E0,3.4602273E-1],"categories":[],"categories_nodes":[],"categories_segments":[],"categories_sizes":[],"default_left":[0,0,0,0,0,0,0,0,0,0,0,0,0,0,0,0,0,0,0,0,0,0,0,0,0,0,0,0,0,0,0,0,0,0,0,0,0,0,0,0,0],"id":24,"left_children":[1,3,5,-1,7,9,11,13,15,17,19,-1,21,23,25,27,-1,-1,-1,29,31,-1,-1,33,-1,35,-1,37,39,-1,-1,-1,-1,-1,-1,-1,-1,-1,-1,-1,-1],"loss_changes":[1.657053E6,3.1368897E5,2.783905E5,0E0,8.972256E4,2.677927E5,6.6882625E4,2.6144875E4,4.164525E4,3.1406875E3,7.459075E4,0E0,4.7097188E3,1.9094031E4,4.5816406E3,2.640684E4,0E0,0E0,0E0,4.306035E4,6.0492812E3,0E0,0E0,1.34225625E4,0E0,1.6971602E3,0E0,1.7539215E4,4.0326688E4,0E0,0E0,0E0,0E0,0E0,0E0,0E0,0E0,0E0,0E0,0E0,0E0],"parents":[2147483647,0,0,1,1,2,2,4,4,5,5,6,6,7,7,8,8,9,9,10,10,12,12,13,13,14,14,15,15,19,19,20,20,23,23,25,25,27,27,28,28],"right_children":[2,4,6,-1,8,10,12,14,16,18,20,-1,22,24,26,28,-1,-1,-1,30,32,-1,-1,34,-1,36,-1,38,40,-1,-1,-1,-1,-1,-1,-1,-1,-1,-1,-1,-1],"split_conditions":[1E0,2E0,1E0,6.333613E0,1E0,1E0,1E0,1E0,7E0,1E0,1E0,7.4631853E0,1E0,1E0,1E0,1E0,1.6093103E0,-3.5643394E0,-1.6714971E0,1E0,1E0,4.913404E0,2.5505662E0,1E0,-4.5656455E-1,1E0,-5.5994093E-3,1E0,1E0,5.451198E-1,4.35645E0,8.076662E0,4.034823E0,-1.829532E0,-2.7680163E0,-1.3848556E0,-4.1268396E-1,-3.959155E-1,-2.5186925E0,-2.9606278E0,3.4602273E-1],"split_indices":[14,3,17,0,0,10,53,10,1,7,19,0,2,15,6,16,0,0,0,20,32,0,0,6,0,23,0,46,6,0,0,0,0,0,0,0,0,0,0,0,0],"split_type":[0,0,0,0,0,0,0,0,0,0,0,0,0,0,0,0,0,0,0,0,0,0,0,0,0,0,0,0,0,0,0,0,0,0,0,0,0,0,0,0,0],"sum_hessian":[4.97E2,3.78E2,1.19E2,9E0,3.69E2,5.2E1,6.7E1,2.13E2,1.56E2,1.5E1,3.7E1,4.9E1,1.8E1,1.77E2,3.6E1,1.43E2,1.3E1,6E0,9E0,2.3E1,1.4E1,7E0,1.1E1,1.66E2,1.1E1,2.8E1,8E0,1.1E2,3.3E1,1.3E1,1E1,7E0,7E0,6.2E1,1.04E2,2.2E1,6E0,1.03E2,7E0,2.3E1,1E1],"tree_param":{"num_deleted":"0","num_feature":"82","num_nodes":"41","size_leaf_vector":"1"}},{"base_weights":[-4.647833E-1,-2.6714575E1,8.066413E1,5.443468E1,-3.0479053E1,2.8128752E1,1.2095603E2,-2.3026395E0,6.778101E0,-4.155611E1,-1.7026472E1,-2.9386381E1,1.1465062E2,1.286827E2,1.4125462E0,-4.823752E1,-2.0453518E1,-1.2724998E1,-2.590028E0,-6.6736115E1,1.73264E1,3.008772E0,5.9594655E0,6.236488E0,3.1395485E0,-5.1903637E1,-8.550714E0,4.2630643E-2,-2.578502E1,2.411072E0,-2.5467394E1,-1.2917571E0,-3.7634354E0,-4.094575E-1,1.7087493E0,-2.510245E0,-1.597013E0,-4.8362935E-1,-2.2483991E-1,-1.4649268E0,-1.5505406E-1,-3.3178374E-2,1.163235E0,-1.520806E0,2.1480482E-2],"categories":[],"categories_nodes":[],"categories_segments":[],"categories_sizes":[],"default_left":[0,0,0,0,0,0,0,0,0,0,0,0,0,0,0,0,0,0,0,0,0,0,0,0,0,0,0,0,0,0,0,0,0,0,0,0,0,0,0,0,0,0,0,0,0],"id":25,"left_children":[1,3,5,7,9,11,13,-1,-1,15,17,19,21,23,-1,25,27,29,-1,31,33,-1,-1,-1,-1,35,37,-1,39,41,43,-1,-1,-1,-1,-1,-1,-1,-1,-1,-1,-1,-1,-1,-1],"loss_changes":[1.075145E6,1.1887081E5,2.5641888E5,1.9260106E5,5.344875E4,2.8055972E5,4.2034E4,0E0,0E0,2.6717062E4,2.8642453E4,6.169083E4,7.5602812E3,2.8665125E4,0E0,2.1255438E4,5.791043E3,2.9677045E4,0E0,9.620984E3,9.70009E3,0E0,0E0,0E0,0E0,7.1405625E3,3.9106934E1,0E0,6.2960312E3,5.3845117E3,1.8947688E4,0E0,0E0,0E0,0E0,0E0,0E0,0E0,0E0,0E0,0E0,0E0,0E0,0E0,0E0],"parents":[2147483647,0,0,1,1,2,2,3,3,4,4,5,5,6,6,9,9,10,10,11,11,12,12,13,13,15,15,16,16,17,17,19,19,20,20,25,25,26,26,28,28,29,29,30,30],"right_children":[2,4,6,8,10,12,14,-1,-1,16,18,20,22,24,-1,26,28,30,-1,32,34,-1,-1,-1,-1,36,38,-1,40,42,44,-1,-1,-1,-1,-1,-1,-1,-1,-1,-1,-1,-1,-1,-1],"split_conditions":[1E0,1E0,1E0,1E0,1E0,1E0,1E0,-2.3026395E0,6.778101E0,1E0,1E0,1E0,1E0,1E0,1.4125462E0,1E0,1E0,1E0,-2.590028E0,1E0,1E0,3.008772E0,5.9594655E0,6.236488E0,3.1395485E0,1E0,1E0,4.2630643E-2,1E0,2E0,1E0,-1.2917571E0,-3.7634354E0,-4.094575E-1,1.7087493E0,-2.510245E0,-1.597013E0,-4.8362935E-1,-2.2483991E-1,-1.4649268E0,-1.5505406E-1,-3.3178374E-2,1.163235E0,-1.520806E0,2.1480482E-2],"split_indices":[14,37,17,9,0,35,66,0,0,12,46,0,15,43,0,41,5,8,0,6,5,0,0,0,0,2,9,0,25,2,45,0,0,0,0,0,0,0,0,0,0,0,0,0,0],"split_type":[0,0,0,0,0,0,0,0,0,0,0,0,0,0,0,0,0,0,0,0,0,0,0,0,0,0,0,0,0,0,0,0,0,0,0,0,0,0,0,0,0,0,0,0,0],"sum_hessian":[5.02E2,3.8E2,1.22E2,1.6E1,3.64E2,5.4E1,6.8E1,8E0,8E0,1.98E2,1.66E2,3.3E1,2.1E1,6.2E1,6E0,1.49E2,4.9E1,1.52E2,1.4E1,1.8E1,1.5E1,8E0,1.3E1,5E1,1.2E1,1.36E2,1.3E1,1E1,3.9E1,7E1,8.2E1,7E0,1.1E1,7E0,8E0,1.03E2,3.3E1,6E0,7E0,2.9E1,1E1,6.3E1,7E0,6.1E1,2.1E1],"tree_param":{"num_deleted":"0","num_feature":"82","num_nodes":"45","size_leaf_vector":"1"}},{"base_weights":[-4.1900632E-1,-2.6627087E1,8.4364624E1,4.634093E0,-3.039944E1,-3.166117E1,9.882096E1,-4.1705456E1,-1.4165846E1,-5.1023744E-2,-2.4948583E0,6.097944E1,1.3689342E2,-4.5795864E1,-3.34171E0,-1.8971758E1,1.7719331E0,-5.9793177E0,9.930266E1,1.4502133E2,3.6185124E0,-5.5930923E1,-3.391415E1,-2.625324E1,1.6209329E0,-1.5156674E1,-2.4462678E0,-4.358057E1,2.4433527E0,1.7761438E0,1.2589534E2,7.3349776E0,4.3325424E0,-2.0268068E0,-3.2576394E0,-1.7116597E0,-2.7827567E-1,-5.902073E-1,-1.4788005E0,-8.346426E-2,-1.155259E0,-2.7058527E0,-7.9848564E-1,6.643532E0,3.1514366E0],"categories":[],"categories_nodes":[],"categories_segments":[],"categories_sizes":[],"default_left":[0,0,0,0,0,0,0,0,0,0,0,0,0,0,0,0,0,0,0,0,0,0,0,0,0,0,0,0,0,0,0,0,0,0,0,0,0,0,0,0,0,0,0,0,0],"id":26,"left_children":[1,3,5,-1,7,9,11,13,15,-1,-1,17,19,21,23,25,-1,27,29,31,-1,33,35,37,-1,39,-1,41,-1,-1,43,-1,-1,-1,-1,-1,-1,-1,-1,-1,-1,-1,-1,-1,-1],"loss_changes":[1.04846356E6,1.824249E5,1.9132181E5,0E0,6.365997E4,9.92269E3,1.3139175E5,3.2174531E4,3.908781E4,0E0,0E0,1.3535266E5,5.095125E3,1.9757594E4,2.089044E4,1.744368E4,0E0,5.018532E4,4.560747E4,1.55865625E4,0E0,1.2912625E4,1.1003695E4,6.851006E2,0E0,1.7823574E4,0E0,4.390963E3,0E0,0E0,1.4006625E4,0E0,0E0,0E0,0E0,0E0,0E0,0E0,0E0,0E0,0E0,0E0,0E0,0E0,0E0],"parents":[2147483647,0,0,1,1,2,2,4,4,5,5,6,6,7,7,8,8,11,11,12,12,13,13,14,14,15,15,17,17,18,18,19,19,21,21,22,22,23,23,25,25,27,27,30,30],"right_children":[2,4,6,-1,8,10,12,14,16,-1,-1,18,20,22,24,26,-1,28,30,32,-1,34,36,38,-1,40,-1,42,-1,-1,44,-1,-1,-1,-1,-1,-1,-1,-1,-1,-1,-1,-1,-1,-1],"split_conditions":[1E0,2E0,4E0,4.634093E0,1E0,1E0,1E0,1E0,7E0,-5.1023744E-2,-2.4948583E0,1E0,1E0,1E0,1E0,1E0,1.7719331E0,1E0,6E0,1E0,3.6185124E0,1E0,1E0,3E0,1.6209329E0,1E0,-2.4462678E0,1E0,2.4433527E0,1.7761438E0,1E0,7.3349776E0,4.3325424E0,-2.0268068E0,-3.2576394E0,-1.7116597E0,-2.7827567E-1,-5.902073E-1,-1.4788005E0,-8.346426E-2,-1.155259E0,-2.7058527E0,-7.9848564E-1,6.643532E0,3.1514366E0],"split_indices":[14,3,1,0,0,6,15,25,1,0,0,17,56,9,6,46,0,35,1,33,0,11,11,1,0,8,0,7,0,0,53,0,0,0,0,0,0,0,0,0,0,0,0,0,0],"split_type":[0,0,0,0,0,0,0,0,0,0,0,0,0,0,0,0,0,0,0,0,0,0,0,0,0,0,0,0,0,0,0,0,0,0,0,0,0,0,0,0,0,0,0,0,0],"sum_hessian":[4.69E2,3.59E2,1.1E2,9E0,3.5E2,1.2E1,9.8E1,2.05E2,1.45E2,6E0,6E0,5.1E1,4.7E1,1.85E2,2E1,1.34E2,1.1E1,1.9E1,3.2E1,3.9E1,8E0,9.7E1,8.8E1,1.3E1,7E0,1.23E2,1.1E1,1.2E1,7E0,1.1E1,2.1E1,2.5E1,1.4E1,6.4E1,3.3E1,7.5E1,1.3E1,6E0,7E0,5.6E1,6.7E1,6E0,6E0,1.3E1,8E0],"tree_param":{"num_deleted":"0","num_feature":"82","num_nodes":"45","size_leaf_vector":"1"}},{"base_weights":[5.4587727E0,-2.499645E1,9.8318886E1,9.567658E1,-3.123803E1,-2.8465848E0,1.1384472E2,-7.03446E-1,8.155383E0,-4.38471E1,-1.6923079E1,1.22347885E2,1.8818693E-1,-3.7965122E1,-6.1306015E1,-6.1083393E0,-5.1546432E1,1.3139488E2,-3.5956495E-2,-4.292542E1,-2.8560843E1,-3.3967347E0,-1.4081931E0,-2.2367733E0,-2.4311583E0,-6.076826E1,-3.266706E-1,1.3916872E2,5.587404E-1,-2.0638967E0,-1.3380808E0,-3.7334427E-1,-1.516604E0,1.9856147E-1,-1.282553E0,-2.1413202E0,-4.179849E0,6.659932E0,3.508188E0],"categories":[],"categories_nodes":[],"categories_segments":[],"categories_sizes":[],"default_left":[0,0,0,0,0,0,0,0,0,0,0,0,0,0,0,0,0,0,0,0,0,0,0,0,0,0,0,0,0,0,0,0,0,0,0,0,0,0,0],"id":27,"left_children":[1,3,5,7,9,-1,11,-1,-1,13,15,17,-1,19,21,23,25,27,-1,29,31,-1,-1,33,-1,35,-1,37,-1,-1,-1,-1,-1,-1,-1,-1,-1,-1,-1],"loss_changes":[1.3791149E6,2.8097525E5,3.138705E5,1.843727E5,6.2196906E4,0E0,1.0217975E5,0E0,0E0,1.5738969E4,6.186715E4,1.14266E5,0E0,4.904E3,1.6440406E4,2.3978426E4,1.543268E4,8.5659625E4,0E0,2.0766875E3,5.5752344E3,0E0,0E0,2.1664973E4,0E0,7.1594688E3,0E0,4.0560875E4,0E0,0E0,0E0,0E0,0E0,0E0,0E0,0E0,0E0,0E0,0E0],"parents":[2147483647,0,0,1,1,2,2,3,3,4,4,6,6,9,9,10,10,11,11,13,13,14,14,15,15,16,16,17,17,19,19,20,20,23,23,25,25,27,27],"right_children":[2,4,6,8,10,-1,12,-1,-1,14,16,18,-1,20,22,24,26,28,-1,30,32,-1,-1,34,-1,36,-1,38,-1,-1,-1,-1,-1,-1,-1,-1,-1,-1,-1],"split_conditions":[1E0,1E0,4E0,4E0,1E0,-2.8465848E0,1E0,-7.03446E-1,8.155383E0,1E0,1E0,1E0,1.8818693E-1,1E0,1E0,1E0,1E0,1E0,-3.5956495E-2,1E0,1E0,-3.3967347E0,-1.4081931E0,1E0,-2.4311583E0,4E0,-3.266706E-1,1E0,5.587404E-1,-2.0638967E0,-1.3380808E0,-3.7334427E-1,-1.516604E0,1.9856147E-1,-1.282553E0,-2.1413202E0,-4.179849E0,6.659932E0,3.508188E0],"split_indices":[14,37,1,1,0,0,65,0,0,22,16,13,0,2,9,46,6,62,0,21,5,0,0,36,0,1,0,43,0,0,0,0,0,0,0,0,0,0,0],"split_type":[0,0,0,0,0,0,0,0,0,0,0,0,0,0,0,0,0,0,0,0,0,0,0,0,0,0,0,0,0,0,0,0,0,0,0,0,0,0,0],"sum_hessian":[4.85E2,3.66E2,1.19E2,1.7E1,3.49E2,1E1,1.09E2,8E0,9E0,1.84E2,1.65E2,1.01E2,8E0,1.41E2,4.3E1,1.27E2,3.8E1,9.4E1,7E0,8.9E1,5.2E1,2.7E1,1.6E1,1.19E2,8E0,3.1E1,7E0,8.8E1,6E0,6.7E1,2.2E1,1.2E1,4E1,9.6E1,2.3E1,2.5E1,6E0,7.3E1,1.5E1],"tree_param":{"num_deleted":"0","num_feature":"82","num_nodes":"39","size_leaf_vector":"1"}},{"base_weights":[3.50574E0,-2.412641E1,8.750893E1,4.6813264E0,-2.8407894E1,-6.1077187E1,1.04140335E2,-3.8510105E1,-1.5320798E1,-1.5390916E0,-3.3721757E0,6.718434E1,1.27393776E2,-5.022219E1,-2.7052647E1,-8.2249365E0,-4.341551E1,3.8501274E1,5.1687837E0,1.0990715E2,8.868952E0,-3.8763966E1,-3.3789506E0,-3.1377766E1,1.6558979E0,-4.116936E0,-2.262141E0,-2.2149396E0,-9.008298E-1,8.431893E0,4.3549886E0,7.2676973E0,8.7291565E1,-1.8560308E0,-5.5582684E-1,-1.5018296E0,-2.5670508E-1,-3.638358E-1,2.3052738E0,-5.834177E-1,1.5580373E0,4.2369595E0,1.3412741E0],"categories":[],"categories_nodes":[],"categories_segments":[],"categories_sizes":[],"default_left":[0,0,0,0,0,0,0,0,0,0,0,0,0,0,0,0,0,0,0,0,0,0,0,0,0,0,0,0,0,0,0,0,0,0,0,0,0,0,0,0,0,0,0],"id":28,"left_children":[1,3,5,-1,7,9,11,13,15,-1,-1,17,19,21,23,25,27,29,-1,31,-1,33,-1,35,-1,37,-1,-1,-1,39,-1,-1,41,-1,-1,-1,-1,-1,-1,-1,-1,-1,-1],"loss_changes":[1.1668821E6,2.1394266E5,3.164853E5,0E0,4.7738594E4,1.5201133E3,8.446525E4,2.5771719E4,3.1872258E4,0E0,0E0,5.899964E4,5.39025E4,2.5487969E4,3.1531797E4,2.2733238E4,3.376793E3,5.5002082E4,0E0,4.9323938E4,0E0,4.937742E3,0E0,5.9670625E3,0E0,2.8242938E4,0E0,0E0,0E0,1.3513908E4,0E0,0E0,1.5799E4,0E0,0E0,0E0,0E0,0E0,0E0,0E0,0E0,0E0,0E0],"parents":[2147483647,0,0,1,1,2,2,4,4,5,5,6,6,7,7,8,8,11,11,12,12,13,13,14,14,15,15,16,16,17,17,19,19,21,21,23,23,25,25,29,29,32,32],"right_children":[2,4,6,-1,8,10,12,14,16,-1,-1,18,20,22,24,26,28,30,-1,32,-1,34,-1,36,-1,38,-1,-1,-1,40,-1,-1,42,-1,-1,-1,-1,-1,-1,-1,-1,-1,-1],"split_conditions":[1E0,2E0,4E0,4.6813264E0,1E0,1E0,1E0,1E0,1E0,-1.5390916E0,-3.3721757E0,1E0,1E0,1E0,1E0,1E0,1E0,1E0,5.1687837E0,1E0,8.868952E0,1E0,-3.3789506E0,1E0,1.6558979E0,1E0,-2.262141E0,-2.2149396E0,-9.008298E-1,1E0,4.3549886E0,7.2676973E0,1E0,-1.8560308E0,-5.5582684E-1,-1.5018296E0,-2.5670508E-1,-3.638358E-1,2.3052738E0,-5.834177E-1,1.5580373E0,4.2369595E0,1.3412741E0],"split_indices":[14,3,1,0,0,15,17,9,36,0,0,12,25,11,29,46,2,26,0,7,0,47,0,15,0,22,0,0,0,15,0,0,26,0,0,0,0,0,0,0,0,0,0],"split_type":[0,0,0,0,0,0,0,0,0,0,0,0,0,0,0,0,0,0,0,0,0,0,0,0,0,0,0,0,0,0,0,0,0,0,0,0,0,0,0,0,0,0,0],"sum_hessian":[5E2,3.77E2,1.23E2,1.1E1,3.66E2,1.2E1,1.11E2,2.05E2,1.61E2,6E0,6E0,4.5E1,6.6E1,9.9E1,1.06E2,1.3E2,3.1E1,3E1,1.5E1,5.6E1,1E1,7.1E1,2.8E1,1E2,6E0,1.2E2,1E1,2.3E1,8E0,2.1E1,9E0,1.4E1,4.2E1,6.3E1,8E0,9.1E1,9E0,1.13E2,7E0,1.2E1,9E0,3.6E1,6E0],"tree_param":{"num_deleted":"0","num_feature":"82","num_nodes":"43","size_leaf_vector":"1"}},{"base_weights":[3.1007776E0,-2.0878828E1,7.742521E1,9.591985E1,-2.683151E1,6.5291E1,1.0129601E1,-8.41616E-1,7.4988656E0,-3.6627937E1,-1.3973387E1,2.131499E1,1.0336687E2,-3.959302E1,-1.0447803E1,-4.958959E0,-4.8236176E1,-2.8350998E1,6.488866E1,1.2806975E0,1.17344185E2,-4.4504463E1,-2.3604366E1,6.9114275E0,-1.575951E0,-8.718092E0,2.5117893E0,-5.7845497E1,-4.9318075E-1,-6.1341614E1,1.0050237E0,4.552199E1,4.1792483E0,1.027872E2,6.859292E0,-2.1564353E0,-1.3622605E0,2.8491026E-1,-1.4374882E0,-7.849772E-1,1.4880049E0,-5.2538794E-1,9.811873E-1,-1.6350927E0,-3.125149E0,-1.1808137E0,-3.9973254E0,9.0268934E-1,2.6427627E0,2.728172E0,5.047607E0],"categories":[],"categories_nodes":[],"categories_segments":[],"categories_sizes":[],"default_left":[0,0,0,0,0,0,0,0,0,0,0,0,0,0,0,0,0,0,0,0,0,0,0,0,0,0,0,0,0,0,0,0,0,0,0,0,0,0,0,0,0,0,0,0,0,0,0,0,0,0,0],"id":29,"left_children":[1,3,5,7,9,11,-1,-1,-1,13,15,17,19,21,23,25,27,29,31,-1,33,35,37,39,-1,41,-1,43,-1,45,-1,47,-1,49,-1,-1,-1,-1,-1,-1,-1,-1,-1,-1,-1,-1,-1,-1,-1,-1,-1],"loss_changes":[8.799164E5,2.632753E5,1.9870325E5,1.5844825E5,4.4169453E4,1.8678462E5,0E0,0E0,0E0,1.5048281E4,4.797168E4,1.2037847E5,5.8167688E4,1.2677219E4,1.0077665E4,2.9674428E4,1.0659891E4,4.63806E4,1.0519469E4,0E0,4.6206875E3,5.4600625E3,1.2195445E4,1.0247231E4,0E0,1.1768227E4,0E0,2.9992188E3,0E0,1.2928789E4,0E0,5.456926E3,0E0,8.1191875E3,0E0,0E0,0E0,0E0,0E0,0E0,0E0,0E0,0E0,0E0,0E0,0E0,0E0,0E0,0E0,0E0,0E0],"parents":[2147483647,0,0,1,1,2,2,3,3,4,4,5,5,9,9,10,10,11,11,12,12,13,13,14,14,15,15,16,16,17,17,18,18,20,20,21,21,22,22,23,23,25,25,27,27,29,29,31,31,33,33],"right_children":[2,4,6,8,10,12,-1,-1,-1,14,16,18,20,22,24,26,28,30,32,-1,34,36,38,40,-1,42,-1,44,-1,46,-1,48,-1,50,-1,-1,-1,-1,-1,-1,-1,-1,-1,-1,-1,-1,-1,-1,-1,-1,-1],"split_conditions":[1E0,1E0,1E0,1E0,1E0,1E0,1.0129601E1,-8.41616E-1,7.4988656E0,1E0,1E0,1E0,1E0,1E0,1E0,1E0,1E0,4E0,1E0,1.2806975E0,3E0,1E0,1E0,1E0,-1.575951E0,7E0,2.5117893E0,2E0,-4.9318075E-1,4E0,1.0050237E0,1E0,4.1792483E0,1E0,6.859292E0,-2.1564353E0,-1.3622605E0,2.8491026E-1,-1.4374882E0,-7.849772E-1,1.4880049E0,-5.2538794E-1,9.811873E-1,-1.6350927E0,-3.125149E0,-1.1808137E0,-3.9973254E0,9.0268934E-1,2.6427627E0,2.728172E0,5.047607E0],"split_indices":[14,37,54,9,0,15,0,0,0,41,16,17,9,12,33,64,21,0,29,0,2,2,5,9,0,1,0,0,0,1,0,0,0,12,0,0,0,0,0,0,0,0,0,0,0,0,0,0,0,0,0],"split_type":[0,0,0,0,0,0,0,0,0,0,0,0,0,0,0,0,0,0,0,0,0,0,0,0,0,0,0,0,0,0,0,0,0,0,0,0,0,0,0,0,0,0,0,0,0,0,0,0,0,0,0],"sum_hessian":[4.91E2,3.72E2,1.19E2,1.7E1,3.55E2,1.12E2,7E0,7E0,1E1,2E2,1.55E2,5.3E1,5.9E1,1.79E2,2.1E1,1.24E2,3.1E1,2.5E1,2.8E1,1E1,4.9E1,1.35E2,4.4E1,1.3E1,8E0,1.18E2,6E0,2.4E1,7E0,1.5E1,1E1,1.9E1,9E0,3.9E1,1E1,1.02E2,3.3E1,1E1,3.4E1,7E0,6E0,1.08E2,1E1,1.1E1,1.3E1,8E0,7E0,8E0,1.1E1,1E1,2.9E1],"tree_param":{"num_deleted":"0","num_feature":"82","num_nodes":"51","size_leaf_vector":"1"}},{"base_weights":[2.2292397E0,-2.4531519E1,8.1062195E1,3.7623663E0,-2.7820398E1,-3.8937454E1,9.741962E1,-3.5837063E1,-1.6381304E1,-4.7953016E-1,-3.157537E0,1.0557252E2,-9.805054E-1,-3.890462E1,-1.3709729E1,-2.0693295E1,1.568743E0,6.9373985E1,1.2268071E2,-4.5139317E1,-2.4291115E1,3.1300038E-1,-2.7387613E1,-1.7024937E1,-2.8987093E0,2.0689064E1,4.8221564E0,1.00603905E2,1.9217587E2,-1.5643413E0,-2.3410876E0,-3.061558E-1,-1.3797268E0,-6.3001806E-1,-1.8890101E0,-4.8722944E-1,-2.2283921E0,1.9149783E0,-1.0514686E-1,2.7674127E0,4.8446884E0,1.1233192E1,3.4947462E0],"categories":[],"categories_nodes":[],"categories_segments":[],"categories_sizes":[],"default_left":[0,0,0,0,0,0,0,0,0,0,0,0,0,0,0,0,0,0,0,0,0,0,0,0,0,0,0,0,0,0,0,0,0,0,0,0,0,0,0,0,0,0,0],"id":30,"left_children":[1,3,5,-1,7,9,11,13,15,-1,-1,17,-1,19,21,23,-1,25,27,29,31,-1,33,35,-1,37,-1,39,41,-1,-1,-1,-1,-1,-1,-1,-1,-1,-1,-1,-1,-1,-1],"loss_changes":[1.0690671E6,1.3920055E5,2.5745188E5,0E0,3.2952125E4,1.3743924E4,1.13781E5,1.3864969E4,3.5439504E4,0E0,0E0,5.383025E4,0E0,1.5611156E4,8.339445E3,2.1842363E4,0E0,6.803841E4,8.06115E4,7.1319688E3,6.671535E3,0E0,2.6224111E3,2.6206281E4,0E0,9.650766E3,0E0,8.494375E3,7.7765875E4,0E0,0E0,0E0,0E0,0E0,0E0,0E0,0E0,0E0,0E0,0E0,0E0,0E0,0E0],"parents":[2147483647,0,0,1,1,2,2,4,4,5,5,6,6,7,7,8,8,11,11,13,13,14,14,15,15,17,17,18,18,19,19,20,20,22,22,23,23,25,25,27,27,28,28],"right_children":[2,4,6,-1,8,10,12,14,16,-1,-1,18,-1,20,22,24,-1,26,28,30,32,-1,34,36,-1,38,-1,40,42,-1,-1,-1,-1,-1,-1,-1,-1,-1,-1,-1,-1,-1,-1],"split_conditions":[1E0,2E0,4E0,3.7623663E0,1E0,1E0,2E0,1E0,7E0,-4.7953016E-1,-3.157537E0,6E0,-9.805054E-1,1E0,1E0,6E0,1.568743E0,1E0,1E0,1E0,1E0,3.1300038E-1,1E0,1E0,-2.8987093E0,1E0,4.8221564E0,1E0,1E0,-1.5643413E0,-2.3410876E0,-3.061558E-1,-1.3797268E0,-6.3001806E-1,-1.8890101E0,-4.8722944E-1,-2.2283921E0,1.9149783E0,-1.0514686E-1,2.7674127E0,4.8446884E0,1.1233192E1,3.4947462E0],"split_indices":[14,3,1,0,0,12,13,15,1,0,0,1,0,2,10,1,0,12,26,6,5,0,19,48,0,0,0,9,35,0,0,0,0,0,0,0,0,0,0,0,0,0,0],"split_type":[0,0,0,0,0,0,0,0,0,0,0,0,0,0,0,0,0,0,0,0,0,0,0,0,0,0,0,0,0,0,0,0,0,0,0,0,0,0,0,0,0,0,0],"sum_hessian":[5.04E2,3.77E2,1.27E2,1E1,3.67E2,1.5E1,1.12E2,2.14E2,1.53E2,9E0,6E0,1.05E2,7E0,1.87E2,2.7E1,1.42E2,1.1E1,3.6E1,6.9E1,1.29E2,5.8E1,1.1E1,1.6E1,1.33E2,9E0,1.7E1,1.9E1,5.5E1,1.4E1,5.9E1,7E1,1.7E1,4.1E1,1E1,6E0,1.14E2,1.9E1,8E0,9E0,1.2E1,4.3E1,8E0,6E0],"tree_param":{"num_deleted":"0","num_feature":"82","num_nodes":"43","size_leaf_vector":"1"}},{"base_weights":[3.3568873E0,-2.1441212E1,7.7938736E1,4.629647E1,-2.4928976E1,-2.7534336E1,9.2232346E1,-2.7279062E0,5.750261E0,-2.8716164E1,-2.34339E-1,-2.1050131E0,-2.522674E-1,8.136032E1,9.519102E0,-2.6161507E1,-2.7796862E0,-7.702583E-1,5.1586275E0,8.988835E1,-8.8938856E-1,-3.1354748E1,-1.6037197E1,-9.8890513E-1,9.960633E-1,5.7789616E1,1.133149E2,-1.2109946E0,-2.3356085E0,-3.730267E-1,-2.0854332E0,-4.6054554E-1,5.324729E-1,3.719887E0,-4.8273474E-1,5.2503257E0,2.6566741E0],"categories":[],"categories_nodes":[],"categories_segments":[],"categories_sizes":[],"default_left":[0,0,0,0,0,0,0,0,0,0,0,0,0,0,0,0,0,0,0,0,0,0,0,0,0,0,0,0,0,0,0,0,0,0,0,0,0],"id":31,"left_children":[1,3,5,7,9,11,13,-1,-1,15,17,-1,-1,19,-1,21,-1,-1,23,25,-1,27,29,31,-1,33,35,-1,-1,-1,-1,-1,-1,-1,-1,-1,-1],"loss_changes":[9.519322E5,9.292953E4,1.9720538E5,1.8488231E5,3.444597E4,6.7306367E3,1.2558969E5,0E0,0E0,2.5268625E4,4.774264E3,0E0,0E0,9.4545375E4,0E0,1.5029219E4,0E0,0E0,4.2109707E3,6.4717E4,0E0,1.5088344E4,2.4090586E4,3.8719812E3,0E0,8.0222766E4,4.1944375E3,0E0,0E0,0E0,0E0,0E0,0E0,0E0,0E0,0E0,0E0],"parents":[2147483647,0,0,1,1,2,2,3,3,4,4,5,5,6,6,9,9,10,10,13,13,15,15,18,18,19,19,21,21,22,22,23,23,25,25,26,26],"right_children":[2,4,6,8,10,12,14,-1,-1,16,18,-1,-1,20,-1,22,-1,-1,24,26,-1,28,30,32,-1,34,36,-1,-1,-1,-1,-1,-1,-1,-1,-1,-1],"split_conditions":[1E0,1E0,4E0,4E0,3E0,1E0,1E0,-2.7279062E0,5.750261E0,1E0,4E0,-2.1050131E0,-2.522674E-1,2E0,9.519102E0,1E0,-2.7796862E0,-7.702583E-1,1E0,1E0,-8.8938856E-1,1E0,1E0,1E0,9.960633E-1,1E0,8E0,-1.2109946E0,-2.3356085E0,-3.730267E-1,-2.0854332E0,-4.6054554E-1,5.324729E-1,3.719887E0,-4.8273474E-1,5.2503257E0,2.6566741E0],"split_indices":[14,37,1,1,0,9,54,0,0,46,1,0,0,13,0,0,0,0,5,15,0,4,16,18,0,32,1,0,0,0,0,0,0,0,0,0,0],"split_type":[0,0,0,0,0,0,0,0,0,0,0,0,0,0,0,0,0,0,0,0,0,0,0,0,0,0,0,0,0,0,0,0,0,0,0,0,0],"sum_hessian":[5.12E2,3.85E2,1.27E2,1.8E1,3.67E2,1.5E1,1.12E2,8E0,1E1,3.18E2,4.9E1,7E0,8E0,1.05E2,7E0,2.98E2,2E1,1.1E1,3.8E1,9.7E1,8E0,1.95E2,1.03E2,2.9E1,9E0,4.3E1,5.4E1,1.66E2,2.9E1,8.4E1,1.9E1,1.7E1,1.2E1,3.1E1,1.2E1,4.8E1,6E0],"tree_param":{"num_deleted":"0","num_feature":"82","num_nodes":"37","size_leaf_vector":"1"}},{"base_weights":[3.6675332E0,-1.9296558E1,7.0731804E1,-2.27838E1,5.303006E1,2.5576591E1,1.0390143E2,-3.081033E1,-1.1137712E1,-3.0052364E0,5.5487847E0,-1.4547046E1,8.555926E1,6.4827456E0,8.8345924E1,-3.2739323E1,1.2320492E0,-1.4472527E1,2.4056437E0,-5.9166492E1,2.8769852E1,5.0671444E0,6.5324745E1,6.0156887E1,4.6182933E0,-3.491845E1,1.644564E0,-8.469974E0,-3.671235E1,-1.2235341E0,-3.9280477E0,-4.8212516E-1,3.9825664E0,1.727217E0,3.7313623E0,1.6335288E0,3.5651855E0,-1.3349438E0,-2.224239E0,-9.378929E-2,2.2607012E-1,-1.9117478E-1,-1.8473419E0,-2.2162127E0,-5.788576E-2],"categories":[],"categories_nodes":[],"categories_segments":[],"categories_sizes":[],"default_left":[0,0,0,0,0,0,0,0,0,0,0,0,0,0,0,0,0,0,0,0,0,0,0,0,0,0,0,0,0,0,0,0,0,0,0,0,0,0,0,0,0,0,0,0,0],"id":32,"left_children":[1,3,5,7,9,11,13,15,17,-1,-1,19,21,-1,23,25,-1,27,-1,29,31,-1,33,35,-1,37,39,41,43,-1,-1,-1,-1,-1,-1,-1,-1,-1,-1,-1,-1,-1,-1,-1,-1],"loss_changes":[7.633755E5,9.488856E4,1.8557688E5,3.2549688E4,1.6280412E5,1.3514297E5,2.895E4,2.4816062E4,3.297114E4,0E0,0E0,6.893804E4,2.3299219E3,0E0,1.58466875E4,1.5248266E4,0E0,1.8303885E4,0E0,1.2639934E4,4.575183E4,0E0,3.4616719E3,6.806086E3,0E0,1.1941656E4,1.8856866E2,1.52544375E4,1.359523E4,0E0,0E0,0E0,0E0,0E0,0E0,0E0,0E0,0E0,0E0,0E0,0E0,0E0,0E0,0E0,0E0],"parents":[2147483647,0,0,1,1,2,2,3,3,4,4,5,5,6,6,7,7,8,8,11,11,12,12,14,14,15,15,17,17,19,19,20,20,22,22,23,23,25,25,26,26,27,27,28,28],"right_children":[2,4,6,8,10,12,14,16,18,-1,-1,20,22,-1,24,26,-1,28,-1,30,32,-1,34,36,-1,38,40,42,44,-1,-1,-1,-1,-1,-1,-1,-1,-1,-1,-1,-1,-1,-1,-1,-1],"split_conditions":[1E0,1E0,1E0,1E0,1E0,1E0,1E0,4E0,1E0,-3.0052364E0,5.5487847E0,1E0,1E0,6.4827456E0,1E0,1E0,1.2320492E0,1E0,2.4056437E0,1E0,6E0,5.0671444E0,1E0,1E0,4.6182933E0,1E0,1E0,1E0,1E0,-1.2235341E0,-3.9280477E0,-4.8212516E-1,3.9825664E0,1.727217E0,3.7313623E0,1.6335288E0,3.5651855E0,-1.3349438E0,-2.224239E0,-9.378929E-2,2.2607012E-1,-1.9117478E-1,-1.8473419E0,-2.2162127E0,-5.788576E-2],"split_indices":[14,52,17,0,9,35,6,4,64,0,0,0,0,0,0,47,0,16,0,23,1,0,19,22,0,22,6,46,6,0,0,0,0,0,0,0,0,0,0,0,0,0,0,0,0],"split_type":[0,0,0,0,0,0,0,0,0,0,0,0,0,0,0,0,0,0,0,0,0,0,0,0,0,0,0,0,0,0,0,0,0,0,0,0,0,0,0,0,0,0,0,0,0],"sum_hessian":[4.93E2,3.68E2,1.25E2,3.52E2,1.6E1,5.4E1,7.1E1,2.07E2,1.45E2,6E0,1E1,3.3E1,2.1E1,1.6E1,5.5E1,2.01E2,6E0,1.39E2,6E0,1.6E1,1.7E1,6E0,1.5E1,2.2E1,3.3E1,1.89E2,1.2E1,1.11E2,2.8E1,9E0,7E0,1.1E1,6E0,8E0,7E0,1.2E1,1E1,1.46E2,4.3E1,6E0,6E0,1E2,1.1E1,2E1,8E0],"tree_param":{"num_deleted":"0","num_feature":"82","num_nodes":"45","size_leaf_vector":"1"}},{"base_weights":[2.9771695E0,-2.0595358E1,8.4904465E1,-2.2646767E1,3.9483125E0,4.3718636E1,1.1399103E2,2.4591322E0,-2.5173811E1,5.630192E0,2.7753393E1,9.062768E1,1.860932E2,-2.861369E1,-4.000686E0,-2.0878561E1,5.8327953E1,1.5004059E0,1.0492234E2,1.03166065E1,4.371902E0,-3.0886957E1,-7.206967E0,3.9503536E-1,-1.0934469E0,-2.4322648E0,1.6429669E-1,3.5118786E1,4.220191E0,2.6726768E0,4.9014783E0,-1.2768719E0,-2.5428326E0,-3.6954794E-2,-1.2684602E0,-3.665132E-1,5.1329154E-1,2.0910802E-1,2.570996E0],"categories":[],"categories_nodes":[],"categories_segments":[],"categories_sizes":[],"default_left":[0,0,0,0,0,0,0,0,0,0,0,0,0,0,0,0,0,0,0,0,0,0,0,0,0,0,0,0,0,0,0,0,0,0,0,0,0,0,0],"id":33,"left_children":[1,3,5,7,-1,9,11,-1,13,-1,15,17,19,21,23,25,27,-1,29,-1,-1,31,33,35,-1,-1,-1,37,-1,-1,-1,-1,-1,-1,-1,-1,-1,-1,-1],"loss_changes":[9.6311206E5,8.980616E4,1.2640406E5,7.712053E4,0E0,5.9117445E4,8.4591E4,0E0,2.681611E4,0E0,6.4799797E4,3.6781312E4,2.5788562E4,1.517925E4,4.850025E3,1.4769356E4,1.7712531E4,0E0,2.5246875E2,0E0,0E0,1.4040344E4,4.374045E3,4.510607E3,0E0,0E0,0E0,1.2337895E4,0E0,0E0,0E0,0E0,0E0,0E0,0E0,0E0,0E0,0E0,0E0],"parents":[2147483647,0,0,1,1,2,2,3,3,5,5,6,6,8,8,10,10,11,11,12,12,13,13,14,14,15,15,16,16,18,18,21,21,22,22,23,23,27,27],"right_children":[2,4,6,8,-1,10,12,-1,14,-1,16,18,20,22,24,26,28,-1,30,-1,-1,32,34,36,-1,-1,-1,38,-1,-1,-1,-1,-1,-1,-1,-1,-1,-1,-1],"split_conditions":[1E0,1E0,6E0,2E0,3.9483125E0,1E0,1E0,2.4591322E0,3E0,5.630192E0,1E0,1E0,3E0,1E0,1E0,1E0,1E0,1.5004059E0,1E0,1.03166065E1,4.371902E0,1E0,1E0,1E0,-1.0934469E0,-2.4322648E0,1.6429669E-1,1E0,4.220191E0,2.6726768E0,4.9014783E0,-1.2768719E0,-2.5428326E0,-3.6954794E-2,-1.2684602E0,-3.665132E-1,5.1329154E-1,2.0910802E-1,2.570996E0],"split_indices":[14,72,1,3,0,37,26,0,0,0,12,9,3,31,2,7,34,0,0,0,0,46,60,21,0,0,0,2,0,0,0,0,0,0,0,0,0,0,0],"split_type":[0,0,0,0,0,0,0,0,0,0,0,0,0,0,0,0,0,0,0,0,0,0,0,0,0,0,0,0,0,0,0,0,0,0,0,0,0,0,0],"sum_hessian":[4.96E2,3.86E2,1.1E2,3.8E2,6E0,4.7E1,6.3E1,1.1E1,3.69E2,6E0,4.1E1,5E1,1.3E1,3.17E2,5.2E1,1.6E1,2.5E1,1.1E1,3.9E1,7E0,6E0,2.86E2,3.1E1,4.4E1,8E0,6E0,1E1,1.7E1,8E0,6E0,3.3E1,2.67E2,1.9E1,2.5E1,6E0,2.5E1,1.9E1,8E0,9E0],"tree_param":{"num_deleted":"0","num_feature":"82","num_nodes":"39","size_leaf_vector":"1"}},{"base_weights":[-1.5207446E0,-2.0008442E1,5.4458683E1,3.4540493E0,-2.3156109E1,6.9986725E0,9.2031944E1,-2.0897314E1,-2.486905E0,-1.1992171E1,3.8682237E0,1.0622125E2,5.33807E1,-2.3211908E1,1.1854279E1,-2.7917776E1,1.9462956E0,1.1629798E2,2.1836495E0,5.65258E-1,3.4731076E0,-1.25989275E1,-3.0606642E1,5.23186E1,-1.8615973E0,-2.578161E0,-6.8077188E0,9.551749E1,6.442393E0,-1.1729772E0,-1.8121098E-1,-1.47389E0,-1.159439E-1,3.5433297E0,6.6364676E-1,-1.0371226E0,5.3373015E-1,2.681011E0,5.479378E0],"categories":[],"categories_nodes":[],"categories_segments":[],"categories_sizes":[],"default_left":[0,0,0,0,0,0,0,0,0,0,0,0,0,0,0,0,0,0,0,0,0,0,0,0,0,0,0,0,0,0,0,0,0,0,0,0,0,0,0],"id":34,"left_children":[1,3,5,-1,7,9,11,13,-1,15,-1,17,19,21,23,25,-1,27,-1,-1,-1,29,31,33,-1,-1,35,37,-1,-1,-1,-1,-1,-1,-1,-1,-1,-1,-1],"loss_changes":[4.894309E5,1.1185742E5,2.0846956E5,0E0,2.392086E4,8.265163E4,2.7833562E4,2.5059266E4,0E0,4.1186625E4,0E0,1.8604906E4,1.9136035E4,2.3343531E4,5.1848344E4,2.1926826E4,0E0,3.2110625E3,0E0,0E0,0E0,1.4818443E4,1.2601953E4,1.2051605E4,0E0,0E0,7.365663E3,1.5255656E4,0E0,0E0,0E0,0E0,0E0,0E0,0E0,0E0,0E0,0E0,0E0],"parents":[2147483647,0,0,1,1,2,2,4,4,5,5,6,6,7,7,9,9,11,11,12,12,13,13,14,14,15,15,17,17,21,21,22,22,23,23,26,26,27,27],"right_children":[2,4,6,-1,8,10,12,14,-1,16,-1,18,20,22,24,26,-1,28,-1,-1,-1,30,32,34,-1,-1,36,38,-1,-1,-1,-1,-1,-1,-1,-1,-1,-1,-1],"split_conditions":[1E0,2E0,6E0,3.4540493E0,1E0,1E0,1E0,1E0,-2.486905E0,1E0,3.8682237E0,1E0,1E0,1E0,1E0,1E0,1.9462956E0,3E0,2.1836495E0,5.65258E-1,3.4731076E0,1E0,1E0,1E0,-1.8615973E0,-2.578161E0,1E0,1E0,6.442393E0,-1.1729772E0,-1.8121098E-1,-1.47389E0,-1.159439E-1,3.5433297E0,6.6364676E-1,-1.0371226E0,5.3373015E-1,2.681011E0,5.479378E0],"split_indices":[14,3,1,0,46,42,32,29,0,44,0,27,15,5,11,9,0,2,0,0,0,11,15,8,0,0,17,20,0,0,0,0,0,0,0,0,0,0,0],"split_type":[0,0,0,0,0,0,0,0,0,0,0,0,0,0,0,0,0,0,0,0,0,0,0,0,0,0,0,0,0,0,0,0,0,0,0,0,0,0,0],"sum_hessian":[4.7E2,3.54E2,1.16E2,1E1,3.44E2,5.2E1,6.4E1,3.24E2,2E1,4.3E1,9E0,4.5E1,1.9E1,3.03E2,2.1E1,3.4E1,9E0,3.7E1,8E0,8E0,1.1E1,1.26E2,1.77E2,1.2E1,9E0,1.3E1,2.1E1,2.5E1,1.2E1,4.7E1,7.9E1,1.62E2,1.5E1,6E0,6E0,1.1E1,1E1,1.3E1,1.2E1],"tree_param":{"num_deleted":"0","num_feature":"82","num_nodes":"39","size_leaf_vector":"1"}},{"base_weights":[-2.7910292E0,-1.8420612E1,4.907815E1,4.054417E1,-2.110113E1,1.4614031E1,7.911396E1,-1.3038446E0,4.637276E0,-2.2485012E1,1.3415327E0,-2.1030397E1,7.0003494E1,8.7208984E1,5.5541265E-1,-1.9016201E1,-4.1339397E1,-4.487848E1,1.8806922E0,7.0311886E-1,4.1410336E0,5.210649E1,4.6653657E0,-2.0401684E1,1.0516417E0,-1.5485778E-1,-4.857264E1,-2.6013184E1,-3.1256151E0,1.0688814E0,3.0984695E0,-9.819754E-1,4.2795587E-2,-2.437646E0,-8.657832E-1,-1.7259749E0,-2.5671038E-1],"categories":[],"categories_nodes":[],"categories_segments":[],"categories_sizes":[],"default_left":[0,0,0,0,0,0,0,0,0,0,0,0,0,0,0,0,0,0,0,0,0,0,0,0,0,0,0,0,0,0,0,0,0,0,0,0,0],"id":35,"left_children":[1,3,5,7,9,11,13,-1,-1,15,-1,17,19,21,-1,23,25,27,-1,-1,-1,29,-1,31,-1,-1,33,35,-1,-1,-1,-1,-1,-1,-1,-1,-1],"loss_changes":[4.1102175E5,6.2763438E4,1.1990597E5,8.1950555E4,2.746111E4,1.13477125E5,3.2115781E4,0E0,0E0,2.2718297E4,0E0,5.618988E4,2.6026773E4,2.6741719E4,0E0,1.9036914E4,1.49344375E4,1.0078961E4,0E0,0E0,0E0,8.195629E3,0E0,1.0894109E4,0E0,0E0,6.940133E3,4.197991E3,0E0,0E0,0E0,0E0,0E0,0E0,0E0,0E0,0E0],"parents":[2147483647,0,0,1,1,2,2,3,3,4,4,5,5,6,6,9,9,11,11,12,12,13,13,15,15,16,16,17,17,21,21,23,23,26,26,27,27],"right_children":[2,4,6,8,10,12,14,-1,-1,16,-1,18,20,22,-1,24,26,28,-1,-1,-1,30,-1,32,-1,-1,34,36,-1,-1,-1,-1,-1,-1,-1,-1,-1],"split_conditions":[1E0,1E0,1E0,4E0,1E0,1E0,1E0,-1.3038446E0,4.637276E0,1E0,1.3415327E0,1E0,1E0,5E0,5.5541265E-1,1E0,1E0,1E0,1.8806922E0,7.0311886E-1,4.1410336E0,1E0,4.6653657E0,1E0,1.0516417E0,-1.5485778E-1,1E0,1E0,-3.1256151E0,1.0688814E0,3.0984695E0,-9.819754E-1,4.2795587E-2,-2.437646E0,-8.657832E-1,-1.7259749E0,-2.5671038E-1],"split_indices":[14,37,17,1,64,35,49,0,0,22,0,44,15,1,0,51,6,23,0,0,0,15,0,29,0,0,2,12,0,0,0,0,0,0,0,0,0],"split_type":[0,0,0,0,0,0,0,0,0,0,0,0,0,0,0,0,0,0,0,0,0,0,0,0,0,0,0,0,0,0,0,0,0,0,0,0,0],"sum_hessian":[5.04E2,3.88E2,1.16E2,1.6E1,3.72E2,5.5E1,6.1E1,8E0,8E0,3.63E2,9E0,3.4E1,2.1E1,5.4E1,7E0,3.09E2,5.4E1,2.5E1,9E0,7E0,1.4E1,2E1,3.4E1,3E2,9E0,9E0,4.5E1,1.6E1,9E0,9E0,1.1E1,2.78E2,2.2E1,3.6E1,9E0,9E0,7E0],"tree_param":{"num_deleted":"0","num_feature":"82","num_nodes":"37","size_leaf_vector":"1"}},{"base_weights":[2.8341505E-1,-1.9268267E1,5.929526E1,-2.247226E1,2.3455887E1,-1.8575088E0,6.823267E1,-2.6653975E1,-7.052199E0,1.8884839E0,4.7626777E0,7.864471E1,-1.3330863E0,-4.421954E0,-2.3168892E1,-1.9163555E1,3.4162502E0,-9.011744E-2,4.420796E-1,9.403202E1,3.8020073E1,-2.5318144E1,1.1778224E1,-2.9553473E1,3.6523073E0,7.9606255E1,1.381666E2,4.3618026E0,4.0248737E0,-1.2157013E0,6.3228106E-1,7.936312E-1,8.063809E-2,-1.6851037E0,-3.1462513E-2,1.1001403E0,-7.955517E-1,4.1250505E0,1.6009877E0,7.4395933E0,3.810064E0,-4.9729002E-1,1.1808863E0],"categories":[],"categories_nodes":[],"categories_segments":[],"categories_sizes":[],"default_left":[0,0,0,0,0,0,0,0,0,0,0,0,0,0,0,0,0,0,0,0,0,0,0,0,0,0,0,0,0,0,0,0,0,0,0,0,0,0,0,0,0,0,0],"id":36,"left_children":[1,3,5,7,9,-1,11,13,15,-1,17,19,-1,-1,21,23,-1,-1,-1,25,27,29,31,33,35,37,39,41,-1,-1,-1,-1,-1,-1,-1,-1,-1,-1,-1,-1,-1,-1,-1],"loss_changes":[5.443808E5,4.9263297E4,1.1011772E5,2.1039281E4,8.752013E3,0E0,1.1422106E5,6.256111E4,7.567425E4,0E0,5.3591095E2,5.6449625E4,0E0,0E0,1.9156938E4,1.5423998E4,0E0,0E0,0E0,2.9230312E4,5.1439395E4,1.9430078E4,8.870947E2,1.0662383E4,1.0363662E4,2.7683094E4,3.2578125E3,7.1245327E3,0E0,0E0,0E0,0E0,0E0,0E0,0E0,0E0,0E0,0E0,0E0,0E0,0E0,0E0,0E0],"parents":[2147483647,0,0,1,1,2,2,3,3,4,4,6,6,7,7,8,8,10,10,11,11,14,14,15,15,19,19,20,20,21,21,22,22,23,23,24,24,25,25,26,26,27,27],"right_children":[2,4,6,8,10,-1,12,14,16,-1,18,20,-1,-1,22,24,-1,-1,-1,26,28,30,32,34,36,38,40,42,-1,-1,-1,-1,-1,-1,-1,-1,-1,-1,-1,-1,-1,-1,-1],"split_conditions":[1E0,6E0,4E0,1E0,5E0,-1.8575088E0,1E0,1E0,1E0,1.8884839E0,1E0,1E0,-1.3330863E0,-4.421954E0,1E0,1E0,3.4162502E0,-9.011744E-2,4.420796E-1,1E0,1E0,1E0,1E0,2E0,2E0,1E0,1E0,1E0,4.0248737E0,-1.2157013E0,6.3228106E-1,7.936312E-1,8.063809E-2,-1.6851037E0,-3.1462513E-2,1.1001403E0,-7.955517E-1,4.1250505E0,1.6009877E0,7.4395933E0,3.810064E0,-4.9729002E-1,1.1808863E0],"split_indices":[14,0,1,10,1,0,13,37,22,0,18,32,0,0,29,6,0,0,0,25,12,51,11,2,2,19,12,44,0,0,0,0,0,0,0,0,0,0,0,0,0,0,0],"split_type":[0,0,0,0,0,0,0,0,0,0,0,0,0,0,0,0,0,0,0,0,0,0,0,0,0,0,0,0,0,0,0,0,0,0,0,0,0,0,0,0,0,0,0],"sum_hessian":[4.69E2,3.53E2,1.16E2,3.29E2,2.4E1,9E0,1.07E2,2.58E2,7.1E1,1.1E1,1.3E1,9.7E1,1E1,1E1,2.48E2,6.3E1,8E0,6E0,7E0,6.9E1,2.8E1,2.34E2,1.4E1,4.3E1,2E1,5.5E1,1.4E1,1.8E1,1E1,2.23E2,1.1E1,8E0,6E0,3.3E1,1E1,1E1,1E1,4.1E1,1.4E1,7E0,7E0,1.1E1,7E0],"tree_param":{"num_deleted":"0","num_feature":"82","num_nodes":"43","size_leaf_vector":"1"}},{"base_weights":[-1.7012607E0,-2.4136757E1,2.5204592E1,-2.589039E1,9.270086E-1,3.5370715E0,6.963986E1,-2.0950768E1,-5.068745E1,-4.5627747E0,3.823413E0,8.3327126E1,1.5706298E1,-2.3275906E1,7.6041822E0,-2.3795507E0,-1.1689446E0,-9.895155E0,3.336729E0,3.9330995E-1,9.587543E1,-2.3688486E-1,1.2190648E0,-2.0988499E1,-2.1742525E0,8.4885603E-1,-1.6972333E-1,-2.0156033E1,3.1188723E1,6.516037E0,3.4404988E0,-7.9988647E-1,-1.6595491E0,-5.3685516E-1,-3.284645E0,2.3017514E0,-1.6443428E0],"categories":[],"categories_nodes":[],"categories_segments":[],"categories_sizes":[],"default_left":[0,0,0,0,0,0,0,0,0,0,0,0,0,0,0,0,0,0,0,0,0,0,0,0,0,0,0,0,0,0,0,0,0,0,0,0,0],"id":37,"left_children":[1,3,5,7,-1,9,11,13,15,17,-1,19,21,23,25,-1,-1,27,-1,-1,29,-1,-1,31,-1,-1,-1,33,35,-1,-1,-1,-1,-1,-1,-1,-1],"loss_changes":[3.138043E5,2.3125953E4,2.2727436E5,3.1983672E4,0E0,1.0771245E5,5.5293438E4,1.5549617E4,1.0786094E3,6.3641477E4,0E0,5.6197625E4,4.499931E3,1.1056383E4,2.520746E3,0E0,0E0,5.966445E4,0E0,0E0,3.302947E4,0E0,0E0,8.760477E3,0E0,0E0,0E0,4.753789E4,4.2604117E4,0E0,0E0,0E0,0E0,0E0,0E0,0E0,0E0],"parents":[2147483647,0,0,1,1,2,2,3,3,5,5,6,6,7,7,8,8,9,9,11,11,12,12,13,13,14,14,17,17,20,20,23,23,27,27,28,28],"right_children":[2,4,6,8,-1,10,12,14,16,18,-1,20,22,24,26,-1,-1,28,-1,-1,30,-1,-1,32,-1,-1,-1,34,36,-1,-1,-1,-1,-1,-1,-1,-1],"split_conditions":[4E0,1E0,1E0,1E0,9.270086E-1,1E0,1E0,1E0,1E0,1E0,3.823413E0,1E0,1E0,1E0,3E0,-2.3795507E0,-1.1689446E0,1E0,3.336729E0,3.9330995E-1,1E0,-2.3688486E-1,1.2190648E0,1E0,-2.1742525E0,8.4885603E-1,-1.6972333E-1,1E0,3E0,6.516037E0,3.4404988E0,-7.9988647E-1,-1.6595491E0,-5.3685516E-1,-3.284645E0,2.3017514E0,-1.6443428E0],"split_indices":[1,52,15,4,0,29,41,45,2,35,0,9,6,46,1,0,0,17,0,0,37,0,0,24,0,0,0,16,3,0,0,0,0,0,0,0,0],"split_type":[0,0,0,0,0,0,0,0,0,0,0,0,0,0,0,0,0,0,0,0,0,0,0,0,0,0,0,0,0,0,0,0,0,0,0,0,0],"sum_hessian":[5.17E2,2.82E2,2.35E2,2.72E2,1E1,1.59E2,7.6E1,2.29E2,4.3E1,1.46E2,1.3E1,6E1,1.6E1,2.12E2,1.7E1,3.7E1,6E0,1.38E2,8E0,9E0,5.1E1,6E0,1E1,1.97E2,1.5E1,8E0,9E0,1.11E2,2.7E1,1.1E1,4E1,1.69E2,2.8E1,9.8E1,1.3E1,2.1E1,6E0],"tree_param":{"num_deleted":"0","num_feature":"82","num_nodes":"37","size_leaf_vector":"1"}},{"base_weights":[-2.042111E0,-1.6611841E1,5.267226E1,-1.9658548E1,1.5179981E1,2.7487782E1,8.737577E1,-2.7308403E1,-1.0414158E1,5.021785E-1,2.4034538E0,-7.744225E0,7.157772E1,9.979131E1,9.076756E-1,-2.928904E1,9.193832E-1,-1.4609121E1,3.7398277E1,1.101866E1,-1.2686968E0,-2.4351004E1,1.3419161E0,3.6961024E0,2.1389453E0,1.1965977E2,2.1927822E0,-3.5701785E0,-2.6934809E1,-8.463965E0,-3.825463E1,2.5270798E0,4.8013163E-1,-2.9623002E-1,1.452559E0,-3.70603E1,1.2537606E-1,7.294193E0,3.2324734E0,-1.0472637E0,-1.9376557E0,-2.569035E-1,-1.9210582E0,-2.0880063E0,-7.9667985E-1,-6.684142E-1,-2.3785243E0],"categories":[],"categories_nodes":[],"categories_segments":[],"categories_sizes":[],"default_left":[0,0,0,0,0,0,0,0,0,0,0,0,0,0,0,0,0,0,0,0,0,0,0,0,0,0,0,0,0,0,0,0,0,0,0,0,0,0,0,0,0,0,0,0,0,0,0],"id":38,"left_children":[1,3,5,7,9,11,13,15,17,19,-1,21,23,25,-1,27,-1,29,31,33,-1,35,-1,-1,-1,37,-1,-1,39,41,43,-1,-1,-1,-1,45,-1,-1,-1,-1,-1,-1,-1,-1,-1,-1,-1],"loss_changes":[3.8820375E5,3.7658273E4,8.610503E4,2.4448031E4,1.9604713E4,9.6192805E4,3.2372625E4,1.9053438E4,3.3150797E4,8.514238E3,0E0,2.3352271E4,1.7638438E3,2.7140469E4,0E0,1.908164E4,0E0,2.1251715E4,6.069207E3,8.1275347E3,0E0,8.926185E3,0E0,0E0,0E0,3.3994875E4,0E0,0E0,8.577172E3,1.088108E4,4.195074E3,0E0,0E0,0E0,0E0,5.166506E3,0E0,0E0,0E0,0E0,0E0,0E0,0E0,0E0,0E0,0E0,0E0],"parents":[2147483647,0,0,1,1,2,2,3,3,4,4,5,5,6,6,7,7,8,8,9,9,11,11,12,12,13,13,15,15,17,17,18,18,19,19,21,21,25,25,28,28,29,29,30,30,35,35],"right_children":[2,4,6,8,10,12,14,16,18,20,-1,22,24,26,-1,28,-1,30,32,34,-1,36,-1,-1,-1,38,-1,-1,40,42,44,-1,-1,-1,-1,46,-1,-1,-1,-1,-1,-1,-1,-1,-1,-1,-1],"split_conditions":[1E0,1E0,1E0,1E0,1E0,1E0,1E0,4E0,7E0,1E0,2.4034538E0,1E0,1E0,1E0,9.076756E-1,1E0,9.193832E-1,1E0,1.8E1,1E0,-1.2686968E0,1E0,1.3419161E0,3.6961024E0,2.1389453E0,1E0,2.1927822E0,-3.5701785E0,1E0,5E0,1E0,2.5270798E0,4.8013163E-1,-2.9623002E-1,1.452559E0,1E0,1.2537606E-1,7.294193E0,3.2324734E0,-1.0472637E0,-1.9376557E0,-2.569035E-1,-1.9210582E0,-2.0880063E0,-7.9667985E-1,-6.684142E-1,-2.3785243E0],"split_indices":[14,15,2,0,0,17,43,4,1,19,0,35,33,32,0,37,0,16,0,12,0,0,0,0,0,7,0,0,4,1,21,0,0,0,0,6,0,0,0,0,0,0,0,0,0,0,0],"split_type":[0,0,0,0,0,0,0,0,0,0,0,0,0,0,0,0,0,0,0,0,0,0,0,0,0,0,0,0,0,0,0,0,0,0,0,0,0,0,0,0,0,0,0,0,0,0,0],"sum_hessian":[4.84E2,3.83E2,1.01E2,3.5E2,3.3E1,6E1,4.1E1,1.9E2,1.6E2,2.5E1,8E0,3.4E1,2.6E1,3.4E1,7E0,1.83E2,7E0,1.48E2,1.2E1,1.9E1,6E0,2.4E1,1E1,1.5E1,1.1E1,2.3E1,1.1E1,6E0,1.77E2,1.19E2,2.9E1,6E0,6E0,1.1E1,8E0,1.6E1,8E0,1E1,1.3E1,1.5E2,2.7E1,1.12E2,7E0,1.9E1,1E1,8E0,8E0],"tree_param":{"num_deleted":"0","num_feature":"82","num_nodes":"47","size_leaf_vector":"1"}},{"base_weights":[5.017561E-1,-1.4499082E1,4.825931E1,-1.8643055E1,2.035678E1,1.1571027E1,7.590346E1,-1.496092E1,-3.6243294E1,4.071736E0,2.094447E0,-1.7422941E0,3.1010485E1,8.867107E1,4.2013874E1,-2.4701233E1,-4.144679E0,-4.983525E1,-2.3161604E1,1.1126944E1,-1.2303607E0,4.3557713E1,-1.3977107E0,7.299745E1,7.172348E0,2.692869E0,2.4544693E1,-2.872434E1,6.3430543E0,-7.4160857E0,2.6869787E1,-3.683125E0,-2.41348E1,-8.671497E0,-3.350742E1,1.9145756E1,-2.0287766E-1,4.478828E0,2.5830427E1,1.4105905E0,3.6793644E0,1.3284558E0,6.4518E-1,-8.100456E-1,-1.6543993E0,1.1265335E0,-2.54711E-1,-2.0194373E-1,-1.8725827E0,1.7018309E0,4.587691E-1,-3.9280987E-1,-1.5914389E0,-1.0273552E-1,-6.0327387E-1,-1.9403816E0,-6.271607E-1,1.9051783E0,-3.167424E-2,-2.6763303E-2,2.5707474E0],"categories":[],"categories_nodes":[],"categories_segments":[],"categories_sizes":[],"default_left":[0,0,0,0,0,0,0,0,0,0,0,0,0,0,0,0,0,0,0,0,0,0,0,0,0,0,0,0,0,0,0,0,0,0,0,0,0,0,0,0,0,0,0,0,0,0,0,0,0,0,0,0,0,0,0,0,0,0,0,0,0],"id":39,"left_children":[1,3,5,7,9,11,13,15,17,-1,19,-1,21,23,25,27,29,31,33,35,-1,37,-1,39,-1,-1,41,43,45,47,49,-1,51,53,55,57,-1,-1,59,-1,-1,-1,-1,-1,-1,-1,-1,-1,-1,-1,-1,-1,-1,-1,-1,-1,-1,-1,-1,-1,-1],"loss_changes":[3.6092706E5,5.591997E4,1.2088397E5,2.1486219E4,5.3608203E4,5.4437023E4,2.4318562E4,3.00298E4,8.749352E3,0E0,9.691883E3,0E0,3.28304E4,3.843753E4,4.8349297E3,1.904504E4,1.4225145E4,2.0426555E4,4.4474883E3,3.573808E3,0E0,3.0188066E4,0E0,1.3370859E4,0E0,0E0,1.0307666E2,1.0934781E4,4.430306E3,1.2236142E4,1.9735488E3,0E0,2.6590967E3,4.35823E2,2.749332E3,8.715602E3,0E0,0E0,2.3238752E4,0E0,0E0,0E0,0E0,0E0,0E0,0E0,0E0,0E0,0E0,0E0,0E0,0E0,0E0,0E0,0E0,0E0,0E0,0E0,0E0,0E0,0E0],"parents":[2147483647,0,0,1,1,2,2,3,3,4,4,5,5,6,6,7,7,8,8,10,10,12,12,13,13,14,14,15,15,16,16,17,17,18,18,19,19,21,21,23,23,26,26,27,27,28,28,29,29,30,30,32,32,33,33,34,34,35,35,38,38],"right_children":[2,4,6,8,10,12,14,16,18,-1,20,-1,22,24,26,28,30,32,34,36,-1,38,-1,40,-1,-1,42,44,46,48,50,-1,52,54,56,58,-1,-1,60,-1,-1,-1,-1,-1,-1,-1,-1,-1,-1,-1,-1,-1,-1,-1,-1,-1,-1,-1,-1,-1,-1],"split_conditions":[1E0,1E0,1E0,1E0,2E0,1E0,1E0,1E0,1E0,4.071736E0,5E0,-1.7422941E0,1E0,1E0,1E0,1E0,7E0,1E0,1E0,1E0,-1.2303607E0,1E0,-1.3977107E0,1E0,7.172348E0,2.692869E0,1E0,1E0,1E0,5E0,1.6E1,-3.683125E0,1E0,1E0,3E0,1E0,-2.0287766E-1,4.478828E0,1E0,1.4105905E0,3.6793644E0,1.3284558E0,6.4518E-1,-8.100456E-1,-1.6543993E0,1.1265335E0,-2.54711E-1,-2.0194373E-1,-1.8725827E0,1.7018309E0,4.587691E-1,-3.9280987E-1,-1.5914389E0,-1.0273552E-1,-6.0327387E-1,-1.9403816E0,-6.271607E-1,1.9051783E0,-3.167424E-2,-2.6763303E-2,2.5707474E0],"split_indices":[14,15,17,16,3,10,53,0,21,0,3,0,23,26,2,10,1,9,9,21,0,0,0,15,0,0,43,6,2,1,0,0,10,38,2,10,0,0,2,0,0,0,0,0,0,0,0,0,0,0,0,0,0,0,0,0,0,0,0,0,0],"split_type":[0,0,0,0,0,0,0,0,0,0,0,0,0,0,0,0,0,0,0,0,0,0,0,0,0,0,0,0,0,0,0,0,0,0,0,0,0,0,0,0,0,0,0,0,0,0,0,0,0,0,0,0,0,0,0,0,0,0,0,0,0],"sum_hessian":[5.01E2,3.82E2,1.19E2,3.42E2,4E1,5.2E1,6.7E1,2.85E2,5.7E1,7E0,3.3E1,1.4E1,3.8E1,4.7E1,2E1,1.49E2,1.36E2,2.6E1,3.1E1,2.6E1,7E0,3.2E1,6E0,4.1E1,6E0,8E0,1.2E1,1.32E2,1.7E1,1.24E2,1.2E1,1E1,1.6E1,1.4E1,1.7E1,1.7E1,9E0,6E0,2.6E1,9E0,3.2E1,6E0,6E0,6.1E1,7.1E1,6E0,1.1E1,1.16E2,8E0,6E0,6E0,8E0,8E0,7E0,7E0,1E1,7E0,7E0,1E1,1.5E1,1.1E1],"tree_param":{"num_deleted":"0","num_feature":"82","num_nodes":"61","size_leaf_vector":"1"}},{"base_weights":[1.3095514E0,-1.5582679E1,5.228419E1,-1.3415352E1,-2.0689764E0,6.446025E1,-1.746546E1,-1.1803446E1,-5.0246937E1,5.484717E1,6.5820823E0,-2.7926934E0,8.0650413E-1,1.7761436E0,-1.3319882E1,-3.2011368E0,-8.3925384E-1,4.6176426E1,8.012645E1,-1.0626693E1,-3.675574E1,6.35785E0,6.258241E1,4.6769176E0,2.560731E0,-5.340527E-1,1.1975049E0,-1.7624178E0,-9.862003E-1,-5.420551E-1,2.0538497E0,3.1713452E0,8.561477E-1],"categories":[],"categories_nodes":[],"categories_segments":[],"categories_sizes":[],"default_left":[0,0,0,0,0,0,0,0,0,0,0,0,0,0,0,0,0,0,0,0,0,0,0,0,0,0,0,0,0,0,0,0,0],"id":40,"left_children":[1,3,5,7,-1,9,11,13,15,17,-1,-1,-1,-1,19,-1,-1,21,23,25,27,29,31,-1,-1,-1,-1,-1,-1,-1,-1,-1,-1],"loss_changes":[4.027774E5,2.269218E4,1.0046869E5,1.8774938E4,0E0,6.837584E4,3.1361262E4,2.5745848E4,7.2303438E3,1.4788844E4,0E0,0E0,0E0,0E0,1.9038383E4,0E0,0E0,4.6090188E4,3.501375E3,1.5062359E4,7.447266E1,1.7368842E4,1.7173062E4,0E0,0E0,0E0,0E0,0E0,0E0,0E0,0E0,0E0,0E0],"parents":[2147483647,0,0,1,1,2,2,3,3,5,5,6,6,7,7,8,8,9,9,14,14,17,17,18,18,19,19,20,20,21,21,22,22],"right_children":[2,4,6,8,-1,10,12,14,16,18,-1,-1,-1,-1,20,-1,-1,22,24,26,28,30,32,-1,-1,-1,-1,-1,-1,-1,-1,-1,-1],"split_conditions":[1E0,1E0,1E0,1E0,-2.0689764E0,1E0,1E0,1E0,1E0,1E0,6.5820823E0,-2.7926934E0,8.0650413E-1,1.7761436E0,1E0,-3.2011368E0,-8.3925384E-1,1E0,1E0,1E0,1E0,1E0,1E0,4.6769176E0,2.560731E0,-5.340527E-1,1.1975049E0,-1.7624178E0,-9.862003E-1,-5.420551E-1,2.0538497E0,3.1713452E0,8.561477E-1],"split_indices":[14,46,23,43,0,63,10,37,21,42,0,0,0,0,4,0,0,0,7,64,2,22,18,0,0,0,0,0,0,0,0,0,0],"split_type":[0,0,0,0,0,0,0,0,0,0,0,0,0,0,0,0,0,0,0,0,0,0,0,0,0,0,0,0,0,0,0,0,0],"sum_hessian":[4.65E2,3.5E2,1.15E2,3.29E2,2.1E1,9.8E1,1.7E1,3.17E2,1.2E1,9E1,8E0,7E0,1E1,8E0,3.09E2,6E0,6E0,7E1,2E1,2.79E2,3E1,2.1E1,4.9E1,7E0,1.3E1,2.7E2,9E0,2.3E1,7E0,1.5E1,6E0,4E1,9E0],"tree_param":{"num_deleted":"0","num_feature":"82","num_nodes":"33","size_leaf_vector":"1"}},{"base_weights":[2.252171E0,-1.3191347E1,4.987033E1,2.9675577E0,-1.5001724E1,-6.0878487E0,6.631199E1,-2.1967945E1,-6.078946E0,-3.0457052E1,2.1187131E0,8.938427E1,3.7353363E1,-2.3878365E1,1.1593826E0,-2.9413114E0,-1.4823111E0,-2.4997568E0,-3.303423E-1,6.4315996E0,6.874911E1,-7.8067126E0,6.1579887E1,-2.6068516E1,5.055985E-1,-9.060821E-1,-1.8061042E0,4.8089247E0,4.5898357E1,-7.230142E-2,-6.6651756E-1,4.2880693E-1,3.3283637E0,-9.9918604E-1,-1.891552E0,3.2093916E-2,-1.1719427E0,3.3858353E-1,2.7168427E0],"categories":[],"categories_nodes":[],"categories_segments":[],"categories_sizes":[],"default_left":[0,0,0,0,0,0,0,0,0,0,0,0,0,0,0,0,0,0,0,0,0,0,0,0,0,0,0,0,0,0,0,0,0,0,0,0,0,0,0],"id":41,"left_children":[1,3,5,-1,7,9,11,13,15,17,-1,19,21,23,-1,25,